{"learner":{"attributes":{"scikit_learn":"{\"_estimator_type\": \"regressor\"}"},"feature_names":[],"feature_types":[],"gradient_booster":{"model":{"cats":{"enc":[],"feature_segments":[],"sorted_idx":[]},"gbtree_model_param":{"num_parallel_tree":"1","num_trees":"300"},"iteration_indptr":[0,1,2,3,4,5,6,7,8,9,10,11,12,13,14,15,16,17,18,19,20,21,22,23,24,25,26,27,28,29,30,31,32,33,34,35,36,37,38,39,40,41,42,43,44,45,46,47,48,49,50,51,52,53,54,55,56,57,58,59,60,61,62,63,64,65,66,67,68,69,70,71,72,73,74,75,76,77,78,79,80,81,82,83,84,85,86,87,88,89,90,91,92,93,94,95,96,97,98,99,100,101,102,103,104,105,106,107,108,109,110,111,112,113,114,115,116,117,118,119,120,121,122,123,124,125,126,127,128,129,130,131,132,133,134,135,136,137,138,139,140,141,142,143,144,145,146,147,148,149,150,151,152,153,154,155,156,157,158,159,160,161,162,163,164,165,166,167,168,169,170,171,172,173,174,175,176,177,178,179,180,181,182,183,184,185,186,187,188,189,190,191,192,193,194,195,196,197,198,199,200,201,202,203,204,205,206,207,208,209,210,211,212,213,214,215,216,217,218,219,220,221,222,223,224,225,226,227,228,229,230,231,232,233,234,235,236,237,238,239,240,241,242,243,244,245,246,247,248,249,250,251,252,253,254,255,256,257,258,259,260,261,262,263,264,265,266,267,268,269,270,271,272,273,274,275,276,277,278,279,280,281,282,283,284,285,286,287,288,289,290,291,292,293,294,295,296,297,298,299,300],"tree_info":[0,0,0,0,0,0,0,0,0,0,0,0,0,0,0,0,0,0,0,0,0,0,0,0,0,0,0,0,0,0,0,0,0,0,0,0,0,0,0,0,0,0,0,0,0,0,0,0,0,0,0,0,0,0,0,0,0,0,0,0,0,0,0,0,0,0,0,0,0,0,0,0,0,0,0,0,0,0,0,0,0,0,0,0,0,0,0,0,0,0,0,0,0,0,0,0,0,0,0,0,0,0,0,0,0,0,0,0,0,0,0,0,0,0,0,0,0,0,0,0,0,0,0,0,0,0,0,0,0,0,0,0,0,0,0,0,0,0,0,0,0,0,0,0,0,0,0,0,0,0,0,0,0,0,0,0,0,0,0,0,0,0,0,0,0,0,0,0,0,0,0,0,0,0,0,0,0,0,0,0,0,0,0,0,0,0,0,0,0,0,0,0,0,0,0,0,0,0,0,0,0,0,0,0,0,0,0,0,0,0,0,0,0,0,0,0,0,0,0,0,0,0,0,0,0,0,0,0,0,0,0,0,0,0,0,0,0,0,0,0,0,0,0,0,0,0,0,0,0,0,0,0,0,0,0,0,0,0,0,0,0,0,0,0,0,0,0,0,0,0,0,0,0,0,0,0,0,0,0,0,0,0,0,0,0,0,0,0,0,0,0,0,0,0,0,0,0,0,0,0],"trees":[{"base_weights":[-9.1853907E-4,-3.0310154E-1,1.399246E0,-7.013684E-1,7.2244E-2,1.0413852E0,2.39531E0,-1.6176745E-1,-7.956596E-1,8.7756866E-1,-1.1879464E-1,1.5464333E0,7.897312E-1,1.9716809E0,2.6205711E0,4.102206E-2,-8.145449E-1,-5.715737E-1,-1.0049322E0,1.7607215E-1,1.1504835E0,-3.155496E-1,1.1653516E-1,1.0349786E0,1.785284E0,5.4757625E-1,1.244516E0,1.6594472E0,2.4250975E0,2.6485155E0,4.2932592E-2,3.7114808E-1,-3.8031214E-1,-6.9160736E-1,-5.5966157E-2,-3.7905556E-1,-9.525269E-1,-7.436417E-1,-1.1616591E0,-2.5271013E-1,2.9850945E-1,1.2819115E0,-2.1635228E-1,-3.816447E-1,1.33339E-1,3.6139557E-1,-1.1104019E-1,7.298776E-1,1.3084073E0,2.5881426E0,1.6537017E0,7.482326E-1,2.9575104E-1,1.0771513E0,1.8037398E0,1.8352699E0,1.0591828E0,2.4991958E0,7.9233795E-2,2.667816E0,1.3239404E0,4.9262475E-2,1.0494691E-3,-3.191324E-2,4.306838E-3,-9.740878E-3,-4.20613E-2,-8.2957017E-4,-2.8511966E-2,3.8730618E-2,-4.8242103E-2,-2.2573551E-2,-6.0392387E-2,-5.1691897E-2,-6.681055E-2,-6.776023E-3,-3.713362E-2,5.722741E-3,2.666763E-2,8.556352E-2,5.0707977E-2,1.9786365E-2,-2.9187981E-2,-1.2739712E-2,-2.6163548E-2,3.537568E-2,-5.772226E-3,4.755355E-2,1.3315277E-2,-1.5804091E-3,-2.0569613E-2,2.4642346E-2,5.388844E-2,7.4028976E-2,2.055215E-2,3.454102E-2,1.3510613E-1,5.8397472E-2,9.500288E-2,1.9890469E-2,4.4432137E-2,1.768655E-2,-9.435045E-3,7.793063E-2,5.0416924E-2,9.3454055E-2,4.316016E-3,7.094114E-2,9.6330404E-2,7.056188E-2,3.9717596E-2,1.2694618E-1,6.0191136E-2,1.1666002E-1,1.3952507E-1,1.8441018E-2,9.6153766E-2],"categories":[],"categories_nodes":[],"categories_segments":[],"categories_sizes":[],"default_left":[0,0,0,0,0,0,0,0,0,0,0,0,0,0,0,0,0,0,0,0,0,0,0,0,0,0,0,0,0,0,0,0,0,0,0,0,0,0,0,0,0,0,0,0,0,0,0,0,0,0,0,0,0,0,0,0,0,0,0,0,0,0,0,0,0,0,0,0,0,0,0,0,0,0,0,0,0,0,0,0,0,0,0,0,0,0,0,0,0,0,0,0,0,0,0,0,0,0,0,0,0,0,0,0,0,0,0,0,0,0,0,0,0,0,0,0,0],"id":0,"left_children":[1,3,5,7,9,11,13,15,17,19,21,23,25,27,29,31,33,35,37,39,41,43,45,47,49,51,53,55,57,59,-1,61,63,65,-1,67,69,71,73,75,77,79,81,83,85,87,89,91,93,95,97,99,101,103,105,107,109,111,-1,113,115,-1,-1,-1,-1,-1,-1,-1,-1,-1,-1,-1,-1,-1,-1,-1,-1,-1,-1,-1,-1,-1,-1,-1,-1,-1,-1,-1,-1,-1,-1,-1,-1,-1,-1,-1,-1,-1,-1,-1,-1,-1,-1,-1,-1,-1,-1,-1,-1,-1,-1,-1,-1,-1,-1,-1,-1],"loss_changes":[4.8863413E3,1.4200974E3,7.2788916E2,2.3427954E2,7.526513E2,1.9046228E2,4.5999756E1,9.105336E1,1.8323706E2,1.7924384E2,1.8313599E2,5.9072998E1,1.1036902E2,2.2749084E1,1.4607666E1,7.316425E1,5.152176E0,1.386325E2,8.195386E1,1.3939738E1,1.21641235E2,6.3983475E1,1.0042445E2,1.2355774E1,3.121399E1,3.307486E1,3.0526978E1,1.0114899E1,3.6398315E-1,4.863037E0,0E0,6.3313416E1,2.7904507E1,8.577656E0,0E0,8.738501E1,1.4294067E1,1.027724E2,2.6605469E1,3.1992261E0,8.778313E0,6.880835E1,1.3742765E1,3.352777E1,3.9709E1,4.8295708E1,2.2225664E1,5.826172E0,1.2180374E1,7.7418823E0,3.2776062E1,1.7575348E1,8.369362E0,7.183258E0,8.508392E0,3.1726074E-1,1.3622398E0,6.87561E-2,0E0,6.852539E0,3.0672617E0,0E0,0E0,0E0,0E0,0E0,0E0,0E0,0E0,0E0,0E0,0E0,0E0,0E0,0E0,0E0,0E0,0E0,0E0,0E0,0E0,0E0,0E0,0E0,0E0,0E0,0E0,0E0,0E0,0E0,0E0,0E0,0E0,0E0,0E0,0E0,0E0,0E0,0E0,0E0,0E0,0E0,0E0,0E0,0E0,0E0,0E0,0E0,0E0,0E0,0E0,0E0,0E0,0E0,0E0,0E0,0E0],"parents":[2147483647,0,0,1,1,2,2,3,3,4,4,5,5,6,6,7,7,8,8,9,9,10,10,11,11,12,12,13,13,14,14,15,15,16,16,17,17,18,18,19,19,20,20,21,21,22,22,23,23,24,24,25,25,26,26,27,27,28,28,29,29,31,31,32,32,33,33,35,35,36,36,37,37,38,38,39,39,40,40,41,41,42,42,43,43,44,44,45,45,46,46,47,47,48,48,49,49,50,50,51,51,52,52,53,53,54,54,55,55,56,56,57,57,59,59,60,60],"right_children":[2,4,6,8,10,12,14,16,18,20,22,24,26,28,30,32,34,36,38,40,42,44,46,48,50,52,54,56,58,60,-1,62,64,66,-1,68,70,72,74,76,78,80,82,84,86,88,90,92,94,96,98,100,102,104,106,108,110,112,-1,114,116,-1,-1,-1,-1,-1,-1,-1,-1,-1,-1,-1,-1,-1,-1,-1,-1,-1,-1,-1,-1,-1,-1,-1,-1,-1,-1,-1,-1,-1,-1,-1,-1,-1,-1,-1,-1,-1,-1,-1,-1,-1,-1,-1,-1,-1,-1,-1,-1,-1,-1,-1,-1,-1,-1,-1,-1],"split_conditions":[7.4263805E-1,-3.887416E-1,1.9170659E0,-7.8910775E-2,-6.605457E-2,-3.6771815E-2,2.2689059E0,1.0766329E0,-5.621984E-1,-6.798731E-1,1.3025142E-1,-5.21309E-1,1.2652534E0,3.3665236E-2,1.0953624E0,6.710912E-1,1.46527E0,8.857841E-1,-1.0164948E0,-1.8631019E-1,1.0859976E0,1.2228959E0,-1.6950676E-2,-7.339564E-2,-8.465773E-2,1.3571999E-3,-1.2489884E-1,9.3571264E-1,1.0391738E0,6.4487986E-2,4.2932592E-2,-5.621984E-1,3.3665236E-2,-1.2711306E0,-5.5966157E-2,3.28248E-3,-6.380878E-1,1.4184463E0,-2.3760897E-1,1.1753699E0,-9.970013E-1,-9.3946405E-2,-1.3909591E0,-5.621984E-1,-1.3709878E0,-1.3060806E0,9.007627E-1,-9.1771924E-1,1.1753699E0,-4.2092308E-1,9.6255124E-1,-8.384372E-1,9.8766774E-1,-1.2162092E0,9.007627E-1,-1.2348474E0,-1.2224133E0,-3.0391347E-3,7.9233795E-2,-7.5915515E-1,4.0124097E0,4.9262475E-2,1.0494691E-3,-3.191324E-2,4.306838E-3,-9.740878E-3,-4.20613E-2,-8.2957017E-4,-2.8511966E-2,3.8730618E-2,-4.8242103E-2,-2.2573551E-2,-6.0392387E-2,-5.1691897E-2,-6.681055E-2,-6.776023E-3,-3.713362E-2,5.722741E-3,2.666763E-2,8.556352E-2,5.0707977E-2,1.9786365E-2,-2.9187981E-2,-1.2739712E-2,-2.6163548E-2,3.537568E-2,-5.772226E-3,4.755355E-2,1.3315277E-2,-1.5804091E-3,-2.0569613E-2,2.4642346E-2,5.388844E-2,7.4028976E-2,2.055215E-2,3.454102E-2,1.3510613E-1,5.8397472E-2,9.500288E-2,1.9890469E-2,4.4432137E-2,1.768655E-2,-9.435045E-3,7.793063E-2,5.0416924E-2,9.3454055E-2,4.316016E-3,7.094114E-2,9.6330404E-2,7.056188E-2,3.9717596E-2,1.2694618E-1,6.0191136E-2,1.1666002E-1,1.3952507E-1,1.8441018E-2,9.6153766E-2],"split_indices":[0,0,0,5,5,5,0,6,6,1,0,1,0,1,6,7,6,7,7,0,6,1,5,3,5,5,1,7,6,5,0,6,1,7,0,5,3,6,7,7,1,5,7,6,7,7,7,1,7,3,0,1,6,7,7,1,6,5,0,1,0,0,0,0,0,0,0,0,0,0,0,0,0,0,0,0,0,0,0,0,0,0,0,0,0,0,0,0,0,0,0,0,0,0,0,0,0,0,0,0,0,0,0,0,0,0,0,0,0,0,0,0,0,0,0,0,0],"split_type":[0,0,0,0,0,0,0,0,0,0,0,0,0,0,0,0,0,0,0,0,0,0,0,0,0,0,0,0,0,0,0,0,0,0,0,0,0,0,0,0,0,0,0,0,0,0,0,0,0,0,0,0,0,0,0,0,0,0,0,0,0,0,0,0,0,0,0,0,0,0,0,0,0,0,0,0,0,0,0,0,0,0,0,0,0,0,0,0,0,0,0,0,0,0,0,0,0,0,0,0,0,0,0,0,0,0,0,0,0,0,0,0,0,0,0,0,0],"sum_hessian":[1.1547E4,9.498E3,2.049E3,4.608E3,4.89E3,1.509E3,5.4E2,6.86E2,3.922E3,9.37E2,3.953E3,5E2,1.009E3,1.91E2,3.49E2,5.24E2,1.62E2,1.896E3,2.026E3,2.63E2,6.74E2,2.153E3,1.8E3,1.61E2,3.39E2,6.6E2,3.49E2,1.16E2,7.5E1,3.43E2,6E0,2.94E2,2.3E2,1.18E2,4.4E1,1.261E3,6.35E2,7.62E2,1.264E3,5.8E1,2.05E2,6.15E2,5.9E1,1.877E3,2.76E2,8.67E2,9.33E2,7.8E1,8.3E1,4.5E1,2.94E2,3.66E2,2.94E2,2.71E2,7.8E1,8.8E1,2.8E1,6.7E1,8E0,3.37E2,6E0,1.06E2,1.88E2,1.48E2,8.2E1,2.8E1,9E1,4.36E2,8.25E2,4E0,6.31E2,4.69E2,2.93E2,7.34E2,5.3E2,4.8E1,1E1,1.16E2,8.9E1,2.34E2,3.81E2,2.2E1,3.7E1,9.92E2,8.85E2,8.3E1,1.93E2,1.19E2,7.48E2,7.39E2,1.94E2,4.8E1,3E1,6.9E1,1.4E1,3E0,4.2E1,1.01E2,1.93E2,1.06E2,2.6E2,2.63E2,3.1E1,3.1E1,2.4E2,7.5E1,3E0,1.9E1,6.9E1,1E1,1.8E1,6.4E1,3E0,9.6E1,2.41E2,3E0,3E0],"tree_param":{"num_deleted":"0","num_feature":"8","num_nodes":"117","size_leaf_vector":"1"}},{"base_weights":[9.379992E-4,-1.8797778E-1,7.5339353E-1,4.1347426E-1,-3.6250225E-1,9.91857E-1,-2.4218607E-1,7.913881E-2,6.914885E-1,-1.3974084E-1,-5.19129E-1,5.691577E-1,1.5449147E0,2.1907577E-1,-4.8324487E-1,1.7709382E-1,-5.7770693E-1,1.1644697E0,4.7071925E-1,-3.3608878E-1,1.0479519E-1,-1.9732776E-1,-5.8624715E-1,1.0536593E0,3.2115525E-1,1.2278532E0,2.1328924E0,-1.6236696E-2,1.245476E0,2.7547296E-2,-5.801717E-1,-8.70953E-2,4.582625E-1,-4.236045E-1,-1.0181528E0,2.0849416E0,9.394783E-1,2.1514182E-1,8.1778175E-1,2.950574E-2,-7.4466735E-1,3.78252E-1,-4.9286774E-1,1.5213156E-1,-3.1151932E-1,-9.772712E-1,-4.4666556E-1,1.172729E0,2.5319093E-1,4.22256E-1,-2.8763878E-1,8.579491E-1,1.6916723E0,1.8756692E0,2.5136735E0,6.3605654E-1,-4.3544728E-1,1.410201E0,-5.5802693E-3,-7.365214E-1,3.3524486E-1,2.4133423E-1,-6.34291E-1,9.637147E-3,-2.679695E-2,5.468265E-2,3.4075808E-3,-2.2925468E-2,1.3121138E-2,-2.3183113E-2,-5.7819664E-2,2.237845E-2,1.15877226E-1,6.97293E-4,6.823268E-2,3.1164024E-2,-3.177349E-2,8.032164E-2,2.1498976E-2,-5.2088786E-2,6.978728E-3,-4.171663E-2,-3.0509606E-2,9.226164E-3,4.3356013E-2,-3.4652274E-2,-4.9122786E-3,-2.7400231E-2,2.1697646E-2,-3.188402E-2,-5.54977E-3,-5.373025E-2,-3.3566777E-2,-1.5228857E-2,-4.03947E-2,4.5368202E-2,8.6808555E-2,-7.008648E-3,2.8401796E-2,3.667144E-2,1.514824E-2,-8.072257E-3,-3.3040483E-2,5.634431E-2,2.2552133E-2,7.1448E-2,1.0083317E-1,9.660683E-2,1.23141585E-2,5.034333E-2,1.2798291E-1,8.71006E-3,8.4771946E-2,-2.7123556E-2,9.502828E-3,1.8210324E-2,8.503945E-2,-7.4683065E-3,-4.7322348E-2,-3.5800727E-3,6.1925482E-2,2.9940857E-2,-3.2244574E-2,-3.6067348E-2,-8.897546E-3],"categories":[],"categories_nodes":[],"categories_segments":[],"categories_sizes":[],"default_left":[0,0,0,0,0,0,0,0,0,0,0,0,0,0,0,0,0,0,0,0,0,0,0,0,0,0,0,0,0,0,0,0,0,0,0,0,0,0,0,0,0,0,0,0,0,0,0,0,0,0,0,0,0,0,0,0,0,0,0,0,0,0,0,0,0,0,0,0,0,0,0,0,0,0,0,0,0,0,0,0,0,0,0,0,0,0,0,0,0,0,0,0,0,0,0,0,0,0,0,0,0,0,0,0,0,0,0,0,0,0,0,0,0,0,0,0,0,0,0,0,0,0,0,0,0],"id":1,"left_children":[1,3,5,7,9,11,13,15,17,19,21,23,25,27,29,31,33,35,37,39,41,43,45,47,49,51,53,55,57,59,61,63,65,67,69,71,73,75,77,79,81,83,85,87,89,91,93,95,97,99,101,103,105,107,109,111,113,115,-1,117,119,121,123,-1,-1,-1,-1,-1,-1,-1,-1,-1,-1,-1,-1,-1,-1,-1,-1,-1,-1,-1,-1,-1,-1,-1,-1,-1,-1,-1,-1,-1,-1,-1,-1,-1,-1,-1,-1,-1,-1,-1,-1,-1,-1,-1,-1,-1,-1,-1,-1,-1,-1,-1,-1,-1,-1,-1,-1,-1,-1,-1,-1,-1,-1],"loss_changes":[1.6468722E3,9.7214935E2,5.5229175E2,1.9348312E2,2.5030469E2,4.374751E2,5.0168335E1,6.0993492E1,1.1801349E2,1.424203E2,9.0823E1,1.2749194E2,1.4842236E2,3.7579487E1,1.4726036E1,6.1359436E1,7.7730026E0,7.250131E1,6.864171E1,2.4581386E2,2.160726E2,2.91543E1,1.8968604E2,3.387265E1,4.3588882E1,8.922504E1,2.256482E1,3.498483E1,6.7700577E0,1.1491688E1,1.1262756E1,5.3644764E1,9.895837E1,2.3668804E0,1.6780624E0,2.5346283E1,1.1474902E2,1.5627306E2,9.972719E1,1.0252303E2,8.7153015E0,8.563483E1,3.263552E1,3.5742798E1,3.5826057E1,2.6380493E1,1.3160284E2,4.495935E1,6.0671444E0,2.2168983E1,4.567362E0,3.1835297E1,1.6752441E1,1.5223511E1,4.7573853E0,2.3981752E1,5.3599606E0,7.0768547E0,0E0,1.4746761E0,1.306752E1,5.450533E0,9.07785E0,0E0,0E0,0E0,0E0,0E0,0E0,0E0,0E0,0E0,0E0,0E0,0E0,0E0,0E0,0E0,0E0,0E0,0E0,0E0,0E0,0E0,0E0,0E0,0E0,0E0,0E0,0E0,0E0,0E0,0E0,0E0,0E0,0E0,0E0,0E0,0E0,0E0,0E0,0E0,0E0,0E0,0E0,0E0,0E0,0E0,0E0,0E0,0E0,0E0,0E0,0E0,0E0,0E0,0E0,0E0,0E0,0E0,0E0,0E0,0E0,0E0,0E0],"parents":[2147483647,0,0,1,1,2,2,3,3,4,4,5,5,6,6,7,7,8,8,9,9,10,10,11,11,12,12,13,13,14,14,15,15,16,16,17,17,18,18,19,19,20,20,21,21,22,22,23,23,24,24,25,25,26,26,27,27,28,28,29,29,30,30,31,31,32,32,33,33,34,34,35,35,36,36,37,37,38,38,39,39,40,40,41,41,42,42,43,43,44,44,45,45,46,46,47,47,48,48,49,49,50,50,51,51,52,52,53,53,54,54,55,55,56,56,57,57,59,59,60,60,61,61,62,62],"right_children":[2,4,6,8,10,12,14,16,18,20,22,24,26,28,30,32,34,36,38,40,42,44,46,48,50,52,54,56,58,60,62,64,66,68,70,72,74,76,78,80,82,84,86,88,90,92,94,96,98,100,102,104,106,108,110,112,114,116,-1,118,120,122,124,-1,-1,-1,-1,-1,-1,-1,-1,-1,-1,-1,-1,-1,-1,-1,-1,-1,-1,-1,-1,-1,-1,-1,-1,-1,-1,-1,-1,-1,-1,-1,-1,-1,-1,-1,-1,-1,-1,-1,-1,-1,-1,-1,-1,-1,-1,-1,-1,-1,-1,-1,-1,-1,-1,-1,-1,-1,-1,-1,-1,-1,-1],"split_conditions":[3.4364408E-1,-6.259234E-2,2.6521048E-1,-4.5616806E-2,-1.8859347E-2,6.284067E-1,7.316068E-1,1.1753699E0,-9.3946405E-2,3.6652684E-1,-1.0314734E0,-3.0184072E-2,-1.2489884E-1,1.0513923E0,-8.680425E-2,1.5682681E-1,1.2852128E0,-1.4009448E0,4.8136258E-1,-1.116352E0,9.007627E-1,-1.4009448E0,3.2159114E-1,9.456984E-1,2.560081E-2,8.955056E-1,8.955056E-1,-5.057595E-2,6.6792154E-1,-1.0532734E0,-1.7105397E0,-1.1313305E0,6.41134E-1,4.4034982E-1,-5.893392E-2,-9.761144E-1,3.6652684E-1,-1.1463091E0,6.1616975E-1,-1.7804021E0,1.2834248E-2,2.5219385E-2,5.657197E-2,-1.4608592E0,-1.256152E0,1.0842849E-1,9.007627E-1,3.6652684E-1,-2.4200208E-1,-1.0564377E0,1.6091657E-1,-1.1297736E-1,1.0974778E0,1.2103199E0,-1.0155603E0,3.3665236E-2,7.7680355E-1,-1.9483857E0,-5.5802693E-3,-1.5519756E0,-2.0418088E-1,1.0605341E0,5.262161E0,9.637147E-3,-2.679695E-2,5.468265E-2,3.4075808E-3,-2.2925468E-2,1.3121138E-2,-2.3183113E-2,-5.7819664E-2,2.237845E-2,1.15877226E-1,6.97293E-4,6.823268E-2,3.1164024E-2,-3.177349E-2,8.032164E-2,2.1498976E-2,-5.2088786E-2,6.978728E-3,-4.171663E-2,-3.0509606E-2,9.226164E-3,4.3356013E-2,-3.4652274E-2,-4.9122786E-3,-2.7400231E-2,2.1697646E-2,-3.188402E-2,-5.54977E-3,-5.373025E-2,-3.3566777E-2,-1.5228857E-2,-4.03947E-2,4.5368202E-2,8.6808555E-2,-7.008648E-3,2.8401796E-2,3.667144E-2,1.514824E-2,-8.072257E-3,-3.3040483E-2,5.634431E-2,2.2552133E-2,7.1448E-2,1.0083317E-1,9.660683E-2,1.23141585E-2,5.034333E-2,1.2798291E-1,8.71006E-3,8.4771946E-2,-2.7123556E-2,9.502828E-3,1.8210324E-2,8.503945E-2,-7.4683065E-3,-4.7322348E-2,-3.5800727E-3,6.1925482E-2,2.9940857E-2,-3.2244574E-2,-3.6067348E-2,-8.897546E-3],"split_indices":[2,5,3,1,5,2,3,7,5,7,7,5,1,2,5,7,7,7,7,7,7,7,7,7,3,2,2,5,1,4,1,7,7,3,3,2,7,7,7,7,2,2,2,7,7,2,7,7,4,7,3,3,2,7,4,1,2,1,0,1,1,7,2,0,0,0,0,0,0,0,0,0,0,0,0,0,0,0,0,0,0,0,0,0,0,0,0,0,0,0,0,0,0,0,0,0,0,0,0,0,0,0,0,0,0,0,0,0,0,0,0,0,0,0,0,0,0,0,0,0,0,0,0,0,0],"split_type":[0,0,0,0,0,0,0,0,0,0,0,0,0,0,0,0,0,0,0,0,0,0,0,0,0,0,0,0,0,0,0,0,0,0,0,0,0,0,0,0,0,0,0,0,0,0,0,0,0,0,0,0,0,0,0,0,0,0,0,0,0,0,0,0,0,0,0,0,0,0,0,0,0,0,0,0,0,0,0,0,0,0,0,0,0,0,0,0,0,0,0,0,0,0,0,0,0,0,0,0,0,0,0,0,0,0,0,0,0,0,0,0,0,0,0,0,0,0,0,0,0,0,0,0,0],"sum_hessian":[1.1583E4,9.259E3,2.324E3,2.082E3,7.177E3,1.875E3,4.49E2,9.46E2,1.136E3,2.964E3,4.213E3,1.064E3,8.11E2,1.54E2,2.95E2,8.24E2,1.22E2,3.6E2,7.76E2,1.644E3,1.32E3,7.28E2,3.485E3,3.59E2,7.05E2,5.29E2,2.82E2,1.26E2,2.8E1,4.7E1,2.48E2,4.25E2,3.99E2,9.2E1,3E1,6.9E1,2.91E2,4.48E2,3.28E2,8.68E2,7.76E2,9.06E2,4.14E2,1.79E2,5.49E2,9.15E2,2.57E3,3.12E2,4.7E1,6.05E2,1E2,2.96E2,2.33E2,1.72E2,1.1E2,4.9E1,7.7E1,2.5E1,3E0,1.3E1,3.4E1,1.5E1,2.33E2,2.62E2,1.63E2,1.51E2,2.48E2,8.8E1,4E0,7E0,2.3E1,9E0,6E1,9.2E1,1.99E2,3.03E2,1.45E2,1.07E2,2.21E2,8E1,7.88E2,4.62E2,3.14E2,6.5E2,2.56E2,2.74E2,1.4E2,5.1E1,1.28E2,2.08E2,3.41E2,6.92E2,2.23E2,1.846E3,7.24E2,2.14E2,9.8E1,2.1E1,2.6E1,1.66E2,4.39E2,7.6E1,2.4E1,1.77E2,1.19E2,1.32E2,1.01E2,1.66E2,6E0,4E0,1.06E2,3.5E1,1.4E1,6.6E1,1.1E1,6E0,1.9E1,4E0,9E0,2.4E1,1E1,1.1E1,4E0,1.95E2,3.8E1],"tree_param":{"num_deleted":"0","num_feature":"8","num_nodes":"125","size_leaf_vector":"1"}},{"base_weights":[4.3989E-3,-2.766703E-1,1.2972274E0,-6.6116863E-1,5.361145E-2,9.21638E-1,2.0899193E0,-3.7702358E-1,-8.293587E-1,-6.4615875E-2,5.0387543E-1,7.820806E-1,1.6332464E0,1.8143569E0,2.515068E0,-5.9329814E-1,-1.1480359E-1,-1.0315475E0,-6.2068355E-1,-2.1964881E-1,1.3882804E-1,1.1422255E0,3.1319088E-1,5.108027E-1,9.725454E-1,-9.684262E-3,1.6670305E0,1.4783698E0,2.2715015E0,-1.9231705E-2,1.2755413E-1,-2.5786543E-1,-8.0404836E-1,1.7503029E-1,-3.5917893E-1,-1.1400683E0,-9.537686E-1,-3.2974184E-1,-7.1924883E-1,1.4175257E-1,-3.8603786E-1,-7.057151E-2,2.7582055E-1,-3.219583E-1,1.296516E0,5.584568E-2,7.1275294E-1,2.2484791E-1,6.5632343E-1,8.23872E-1,1.4006453E0,1.307099E0,1.8484424E0,1.3103769E0,1.7467854E0,1.0075185E0,2.3109918E0,-2.7068296E-2,-5.0647315E-3,-4.596415E-2,-3.1420466E-2,5.0195325E-2,5.276067E-3,-1.8685019E-2,3.224261E-2,-5.912869E-2,-5.206564E-2,-4.8116054E-2,1.7583482E-2,5.357808E-2,-1.9179787E-2,-3.7450064E-2,-7.040283E-3,1.8384628E-2,-5.3942394E-3,-2.6599104E-2,-1.1776186E-2,1.0764286E-2,-8.2773985E-3,5.5041243E-3,2.9258398E-2,-4.8786968E-2,6.4346488E-3,4.2812724E-2,8.10435E-2,-5.4360344E-3,1.7351784E-2,2.7734254E-2,5.5559307E-2,4.9890196E-3,2.7338399E-2,2.7976915E-2,5.6755465E-2,3.396834E-2,4.9945805E-2,6.0751148E-2,9.149086E-2,1.806891E-2,6.963181E-2,7.267525E-2,1.00372456E-1,2.070776E-2,6.81968E-2,9.53892E-2,6.428217E-2,6.492136E-2,2.1986514E-2,1.0360225E-1,1.2308394E-1],"categories":[],"categories_nodes":[],"categories_segments":[],"categories_sizes":[],"default_left":[0,0,0,0,0,0,0,0,0,0,0,0,0,0,0,0,0,0,0,0,0,0,0,0,0,0,0,0,0,0,0,0,0,0,0,0,0,0,0,0,0,0,0,0,0,0,0,0,0,0,0,0,0,0,0,0,0,0,0,0,0,0,0,0,0,0,0,0,0,0,0,0,0,0,0,0,0,0,0,0,0,0,0,0,0,0,0,0,0,0,0,0,0,0,0,0,0,0,0,0,0,0,0,0,0,0,0,0,0],"id":2,"left_children":[1,3,5,7,9,11,13,15,17,19,21,23,25,27,29,31,33,35,37,39,41,43,45,47,49,-1,51,53,55,-1,-1,57,59,61,63,65,67,69,71,73,75,77,79,81,83,85,87,89,91,93,95,97,99,101,103,105,107,-1,-1,-1,-1,-1,-1,-1,-1,-1,-1,-1,-1,-1,-1,-1,-1,-1,-1,-1,-1,-1,-1,-1,-1,-1,-1,-1,-1,-1,-1,-1,-1,-1,-1,-1,-1,-1,-1,-1,-1,-1,-1,-1,-1,-1,-1,-1,-1,-1,-1,-1,-1],"loss_changes":[4.2017944E3,1.2062737E3,6.125781E2,2.093186E2,2.7209967E2,1.3781348E2,7.267749E1,9.252771E1,1.154751E2,1.2771455E2,1.288888E2,6.0065857E1,1.4604309E1,5.8626343E1,2.8141235E1,6.295627E1,5.249419E1,1.0503174E1,3.86297E1,1.3826529E2,5.0269474E1,5.563681E1,8.420014E1,2.0029533E1,4.247644E1,0E0,1.1959961E1,8.092102E0,5.8253174E0,0E0,0E0,1.5283497E1,1.037915E1,1.9314377E1,6.075012E0,9.7247314E-1,9.565735E0,2.6453358E1,1.7256592E1,4.095787E1,3.437349E1,1.8845411E1,5.416166E1,7.2813306E0,2.992331E1,2.40216E1,1.9433472E1,6.5642366E0,1.4116669E1,1.215506E1,1.14930725E1,5.711975E0,5.9673157E0,6.4574585E0,3.761322E0,4.11448E-1,3.5095215E-1,0E0,0E0,0E0,0E0,0E0,0E0,0E0,0E0,0E0,0E0,0E0,0E0,0E0,0E0,0E0,0E0,0E0,0E0,0E0,0E0,0E0,0E0,0E0,0E0,0E0,0E0,0E0,0E0,0E0,0E0,0E0,0E0,0E0,0E0,0E0,0E0,0E0,0E0,0E0,0E0,0E0,0E0,0E0,0E0,0E0,0E0,0E0,0E0,0E0,0E0,0E0,0E0],"parents":[2147483647,0,0,1,1,2,2,3,3,4,4,5,5,6,6,7,7,8,8,9,9,10,10,11,11,12,12,13,13,14,14,15,15,16,16,17,17,18,18,19,19,20,20,21,21,22,22,23,23,24,24,26,26,27,27,28,28,31,31,32,32,33,33,34,34,35,35,36,36,37,37,38,38,39,39,40,40,41,41,42,42,43,43,44,44,45,45,46,46,47,47,48,48,49,49,50,50,51,51,52,52,53,53,54,54,55,55,56,56],"right_children":[2,4,6,8,10,12,14,16,18,20,22,24,26,28,30,32,34,36,38,40,42,44,46,48,50,-1,52,54,56,-1,-1,58,60,62,64,66,68,70,72,74,76,78,80,82,84,86,88,90,92,94,96,98,100,102,104,106,108,-1,-1,-1,-1,-1,-1,-1,-1,-1,-1,-1,-1,-1,-1,-1,-1,-1,-1,-1,-1,-1,-1,-1,-1,-1,-1,-1,-1,-1,-1,-1,-1,-1,-1,-1,-1,-1,-1,-1,-1,-1,-1,-1,-1,-1,-1,-1,-1,-1,-1,-1,-1],"split_conditions":[7.4263805E-1,-4.2344266E-1,1.6709563E0,-5.0276154E-1,8.2648563E-1,6.6792154E-1,2.5522366E0,-8.63479E-1,-7.765427E-1,1.3387378E-1,-1.3709878E0,1.0162565E0,-1.1085275E0,-4.5616806E-2,-2.5814825E-1,-8.127025E-1,6.461269E-1,-1.0530485E0,-3.2451364E-1,-2.919316E-1,-6.798731E-1,-1.5107877E0,1.0043269E-1,-9.1771924E-1,-1.2489884E-1,-9.684262E-3,9.6255124E-1,-1.2723905E-1,-1.1085275E0,-1.9231705E-2,1.2755413E-1,-1.5406688E-1,-1.0309994E0,-1.4109306E0,2.5139123E-1,5.762269E-1,5.262161E0,-1.4109306E0,1.7778702E0,6.41134E-1,-1.2368033E-1,-9.366091E-1,-1.1297736E-1,-1.6406021E0,1.8571521E0,-8.555577E-2,-8.691592E-2,-5.5770256E-2,-2.3334758E-2,1.2944946E0,-1.022287E-1,-9.2697823E-1,9.850497E-1,-8.445355E-1,9.3571264E-1,-3.1334847E-1,-8.8168764E-1,-2.7068296E-2,-5.0647315E-3,-4.596415E-2,-3.1420466E-2,5.0195325E-2,5.276067E-3,-1.8685019E-2,3.224261E-2,-5.912869E-2,-5.206564E-2,-4.8116054E-2,1.7583482E-2,5.357808E-2,-1.9179787E-2,-3.7450064E-2,-7.040283E-3,1.8384628E-2,-5.3942394E-3,-2.6599104E-2,-1.1776186E-2,1.0764286E-2,-8.2773985E-3,5.5041243E-3,2.9258398E-2,-4.8786968E-2,6.4346488E-3,4.2812724E-2,8.10435E-2,-5.4360344E-3,1.7351784E-2,2.7734254E-2,5.5559307E-2,4.9890196E-3,2.7338399E-2,2.7976915E-2,5.6755465E-2,3.396834E-2,4.9945805E-2,6.0751148E-2,9.149086E-2,1.806891E-2,6.963181E-2,7.267525E-2,1.00372456E-1,2.070776E-2,6.81968E-2,9.53892E-2,6.428217E-2,6.492136E-2,2.1986514E-2,1.0360225E-1,1.2308394E-1],"split_indices":[0,0,0,2,1,1,0,0,0,0,7,0,4,1,2,2,7,0,2,2,1,7,0,1,1,0,0,3,4,0,0,3,0,7,3,7,2,7,1,7,0,7,3,7,1,3,3,3,3,0,3,4,1,4,7,2,7,0,0,0,0,0,0,0,0,0,0,0,0,0,0,0,0,0,0,0,0,0,0,0,0,0,0,0,0,0,0,0,0,0,0,0,0,0,0,0,0,0,0,0,0,0,0,0,0,0,0,0,0],"split_type":[0,0,0,0,0,0,0,0,0,0,0,0,0,0,0,0,0,0,0,0,0,0,0,0,0,0,0,0,0,0,0,0,0,0,0,0,0,0,0,0,0,0,0,0,0,0,0,0,0,0,0,0,0,0,0,0,0,0,0,0,0,0,0,0,0,0,0,0,0,0,0,0,0,0,0,0,0,0,0,0,0,0,0,0,0,0,0,0,0,0,0,0,0,0,0,0,0,0,0,0,0,0,0,0,0,0,0,0,0],"sum_hessian":[1.1561E4,9.497E3,2.064E3,4.388E3,5.109E3,1.402E3,6.62E2,1.633E3,2.755E3,4.047E3,1.062E3,1.174E3,2.28E2,4.05E2,2.57E2,8.94E2,7.39E2,1.397E3,1.358E3,2.297E3,1.75E3,2.43E2,8.19E2,4.86E2,6.88E2,4E0,2.24E2,2.36E2,1.69E2,3E0,2.54E2,3.46E2,5.48E2,3.38E2,4.01E2,5.77E2,8.2E2,3.45E2,1.013E3,7.24E2,1.573E3,6.92E2,1.058E3,2.3E1,2.2E2,4.99E2,3.2E2,1.65E2,3.21E2,5.13E2,1.75E2,7.8E1,1.46E2,1.49E2,8.7E1,6E0,1.63E2,1.22E2,2.24E2,3.28E2,2.2E2,2.5E1,3.13E2,3.96E2,5E0,3.95E2,1.82E2,8.15E2,5E0,1.2E1,3.33E2,9.63E2,5E1,3.8E2,3.44E2,7.97E2,7.76E2,1.72E2,5.2E2,6.9E2,3.68E2,9E0,1.4E1,9.5E1,1.25E2,3.19E2,1.8E2,2.31E2,8.9E1,1.2E2,4.5E1,2.69E2,5.2E1,2.84E2,2.29E2,1.25E2,5E1,7E0,7.1E1,4.5E1,1.01E2,9E0,1.4E2,6.2E1,2.5E1,3E0,3E0,6.9E1,9.4E1],"tree_param":{"num_deleted":"0","num_feature":"8","num_nodes":"109","size_leaf_vector":"1"}},{"base_weights":[-3.600646E-3,-2.9165328E-1,1.0983224E0,-6.004223E-1,4.7029033E-2,7.2182024E-1,1.869897E0,-1.8115702E-1,-6.93912E-1,7.575161E-1,-1.421726E-1,1.1768792E0,4.1900662E-1,1.4540446E0,2.201113E0,9.757795E-3,-7.101262E-1,-5.011807E-1,-8.7603605E-1,1.2913984E-1,9.883887E-1,-2.9577214E-1,5.055427E-2,7.091483E-1,1.3733366E0,2.2396368E-1,6.982939E-1,1.155755E0,1.8041435E0,2.3189187E0,1.8115396E0,3.2409653E-1,-3.8176084E-1,-6.0814035E-1,-1.0350767E0,-3.3786976E-1,-8.3756953E-1,-6.4094836E-1,-1.0164644E0,-5.0589754E-3,4.9524796E-1,1.5755792E0,7.153152E-1,1.8582822E-1,-3.4434295E-1,3.4866416E-1,-1.1645813E-1,-2.1885403E-1,7.835108E-1,2.3134599E0,1.2454067E0,4.0071967E-1,5.972082E-2,5.8751816E-1,1.1055183E0,1.402986E0,1.0563763E0,1.9450353E0,1.2425288E0,6.9973737E-1,2.3463507E0,1.5185572E0,2.187593E0,6.287386E-2,1.0304933E-2,-3.4986332E-2,-1.0418813E-2,-2.0327646E-2,-3.7696183E-2,-5.4499235E-2,-3.5612818E-2,-4.3798885E-3,-2.7246062E-2,-3.9341506E-2,-5.9857886E-2,-1.3460742E-2,-4.736493E-2,-4.501561E-2,-5.9487153E-2,2.4966483E-3,-3.1548213E-2,1.3206943E-2,4.757097E-2,5.1233865E-2,9.07636E-2,4.1865986E-2,-1.640275E-2,3.4609612E-2,-1.6650965E-2,-1.0398165E-2,-2.6404396E-2,1.1895466E-2,4.140943E-2,2.132161E-2,-7.769336E-3,-2.7058063E-2,2.251767E-3,5.5262327E-2,3.2473203E-2,1.1961242E-1,6.404549E-2,4.9025763E-2,7.370674E-2,2.4746604E-2,1.1923525E-4,-1.02646295E-2,7.1031223E-3,3.6825206E-2,2.2648854E-2,5.8553483E-2,2.0753425E-3,3.1740364E-2,7.436046E-2,5.741467E-2,3.0932246E-2,1.0320013E-1,7.553261E-2,6.803658E-2,-0E0,4.9727997E-3,5.500422E-2,1.1820598E-1,4.9547132E-2,8.122241E-2,4.306074E-2,1.1403736E-1,3.3043224E-2],"categories":[],"categories_nodes":[],"categories_segments":[],"categories_sizes":[],"default_left":[0,0,0,0,0,0,0,0,0,0,0,0,0,0,0,0,0,0,0,0,0,0,0,0,0,0,0,0,0,0,0,0,0,0,0,0,0,0,0,0,0,0,0,0,0,0,0,0,0,0,0,0,0,0,0,0,0,0,0,0,0,0,0,0,0,0,0,0,0,0,0,0,0,0,0,0,0,0,0,0,0,0,0,0,0,0,0,0,0,0,0,0,0,0,0,0,0,0,0,0,0,0,0,0,0,0,0,0,0,0,0,0,0,0,0,0,0,0,0,0,0,0,0,0,0,0,0],"id":3,"left_children":[1,3,5,7,9,11,13,15,17,19,21,23,25,27,29,31,33,35,37,39,41,43,45,47,49,51,53,55,57,59,61,63,65,67,69,71,73,75,77,79,81,83,85,87,89,91,93,95,97,99,101,103,105,107,109,111,113,115,117,119,121,123,125,-1,-1,-1,-1,-1,-1,-1,-1,-1,-1,-1,-1,-1,-1,-1,-1,-1,-1,-1,-1,-1,-1,-1,-1,-1,-1,-1,-1,-1,-1,-1,-1,-1,-1,-1,-1,-1,-1,-1,-1,-1,-1,-1,-1,-1,-1,-1,-1,-1,-1,-1,-1,-1,-1,-1,-1,-1,-1,-1,-1,-1,-1,-1,-1],"loss_changes":[3.679043E3,9.610198E2,6.9617114E2,1.8820667E2,5.893554E2,2.2202881E2,1.0483301E2,8.874448E1,1.3737024E2,1.3351959E2,1.0252424E2,5.8086487E1,5.2699158E1,3.43786E1,1.5395752E1,7.962085E1,6.92791E0,1.04637024E2,6.583594E1,1.2285213E1,1.0671716E2,4.5155685E1,7.653828E1,1.3546593E1,5.1245117E1,1.6593767E1,1.7180298E1,3.0138855E0,9.924744E0,1.2755615E1,7.9861755E0,3.9133636E1,1.564093E1,4.867302E0,5.950928E-4,6.6683945E1,1.024472E1,8.5944824E1,2.4119751E1,6.388422E0,6.690634E0,2.5982056E1,5.913626E1,4.676888E1,4.3694992E1,2.9012886E1,2.0856106E1,1.3497856E0,6.826561E0,8.801575E-1,2.260492E1,1.0306843E1,6.54751E0,5.8815765E0,5.688919E0,2.2080307E0,4.8262787E0,3.0359192E0,5.215172E0,1.4528818E0,5.14917E0,2.7376404E0,4.456299E0,0E0,0E0,0E0,0E0,0E0,0E0,0E0,0E0,0E0,0E0,0E0,0E0,0E0,0E0,0E0,0E0,0E0,0E0,0E0,0E0,0E0,0E0,0E0,0E0,0E0,0E0,0E0,0E0,0E0,0E0,0E0,0E0,0E0,0E0,0E0,0E0,0E0,0E0,0E0,0E0,0E0,0E0,0E0,0E0,0E0,0E0,0E0,0E0,0E0,0E0,0E0,0E0,0E0,0E0,0E0,0E0,0E0,0E0,0E0,0E0,0E0,0E0,0E0,0E0],"parents":[2147483647,0,0,1,1,2,2,3,3,4,4,5,5,6,6,7,7,8,8,9,9,10,10,11,11,12,12,13,13,14,14,15,15,16,16,17,17,18,18,19,19,20,20,21,21,22,22,23,23,24,24,25,25,26,26,27,27,28,28,29,29,30,30,31,31,32,32,33,33,34,34,35,35,36,36,37,37,38,38,39,39,40,40,41,41,42,42,43,43,44,44,45,45,46,46,47,47,48,48,49,49,50,50,51,51,52,52,53,53,54,54,55,55,56,56,57,57,58,58,59,59,60,60,61,61,62,62],"right_children":[2,4,6,8,10,12,14,16,18,20,22,24,26,28,30,32,34,36,38,40,42,44,46,48,50,52,54,56,58,60,62,64,66,68,70,72,74,76,78,80,82,84,86,88,90,92,94,96,98,100,102,104,106,108,110,112,114,116,118,120,122,124,126,-1,-1,-1,-1,-1,-1,-1,-1,-1,-1,-1,-1,-1,-1,-1,-1,-1,-1,-1,-1,-1,-1,-1,-1,-1,-1,-1,-1,-1,-1,-1,-1,-1,-1,-1,-1,-1,-1,-1,-1,-1,-1,-1,-1,-1,-1,-1,-1,-1,-1,-1,-1,-1,-1,-1,-1,-1,-1,-1,-1,-1,-1,-1,-1],"split_conditions":[6.231531E-1,-3.638577E-1,1.5069532E0,-7.185776E-2,-6.259234E-2,-3.0184072E-2,2.0796514E0,1.0719506E0,-5.621984E-1,-6.798731E-1,1.1712698E-1,-5.21309E-1,1.0162565E0,-2.834629E-1,2.0324988E-3,6.561126E-1,1.6291531E0,9.007627E-1,-1.0164948E0,2.23225E-1,-9.3946405E-2,-1.3909591E0,-2.7787179E-2,-9.75216E-1,-8.5852794E-2,-4.0773252E-6,-4.5616806E-2,-1.1313305E0,8.987026E-1,-1.1953555E0,2.7882664E0,-1.361002E0,-8.803308E-1,-9.515877E-1,-8.167805E-1,2.6684696E-2,1.5648128E0,1.0579034E0,-1.9267324E-1,1.2003342E0,1.8424426E-1,3.3665236E-2,1.1000447E0,1.1983746E0,-5.621984E-1,1.1436138E0,-1.3759806E0,-6.259234E-2,-7.116714E-2,1.0110797E0,8.96299E-1,9.9235016E-1,-1.0762833E0,2.0324988E-3,1.0485387E0,-7.8138787E-1,-5.20057E-1,7.2101974E-1,-8.916734E-1,7.4418426E-1,1.0953624E0,9.2572695E-1,1.0298091E0,6.287386E-2,1.0304933E-2,-3.4986332E-2,-1.0418813E-2,-2.0327646E-2,-3.7696183E-2,-5.4499235E-2,-3.5612818E-2,-4.3798885E-3,-2.7246062E-2,-3.9341506E-2,-5.9857886E-2,-1.3460742E-2,-4.736493E-2,-4.501561E-2,-5.9487153E-2,2.4966483E-3,-3.1548213E-2,1.3206943E-2,4.757097E-2,5.1233865E-2,9.07636E-2,4.1865986E-2,-1.640275E-2,3.4609612E-2,-1.6650965E-2,-1.0398165E-2,-2.6404396E-2,1.1895466E-2,4.140943E-2,2.132161E-2,-7.769336E-3,-2.7058063E-2,2.251767E-3,5.5262327E-2,3.2473203E-2,1.1961242E-1,6.404549E-2,4.9025763E-2,7.370674E-2,2.4746604E-2,1.1923525E-4,-1.02646295E-2,7.1031223E-3,3.6825206E-2,2.2648854E-2,5.8553483E-2,2.0753425E-3,3.1740364E-2,7.436046E-2,5.741467E-2,3.0932246E-2,1.0320013E-1,7.553261E-2,6.803658E-2,-0E0,4.9727997E-3,5.500422E-2,1.1820598E-1,4.9547132E-2,8.122241E-2,4.306074E-2,1.1403736E-1,3.3043224E-2],"split_indices":[0,0,0,5,5,5,0,6,6,1,0,1,0,1,5,7,6,7,7,0,5,7,5,4,5,5,1,7,6,4,0,7,0,7,7,5,7,6,7,7,4,1,6,6,6,1,7,5,5,6,0,6,1,5,6,4,6,7,7,6,6,7,6,0,0,0,0,0,0,0,0,0,0,0,0,0,0,0,0,0,0,0,0,0,0,0,0,0,0,0,0,0,0,0,0,0,0,0,0,0,0,0,0,0,0,0,0,0,0,0,0,0,0,0,0,0,0,0,0,0,0,0,0,0,0,0,0],"split_type":[0,0,0,0,0,0,0,0,0,0,0,0,0,0,0,0,0,0,0,0,0,0,0,0,0,0,0,0,0,0,0,0,0,0,0,0,0,0,0,0,0,0,0,0,0,0,0,0,0,0,0,0,0,0,0,0,0,0,0,0,0,0,0,0,0,0,0,0,0,0,0,0,0,0,0,0,0,0,0,0,0,0,0,0,0,0,0,0,0,0,0,0,0,0,0,0,0,0,0,0,0,0,0,0,0,0,0,0,0,0,0,0,0,0,0,0,0,0,0,0,0,0,0,0,0,0,0],"sum_hessian":[1.1589E4,9.188E3,2.401E3,4.806E3,4.382E3,1.615E3,7.86E2,8.77E2,3.929E3,9.21E2,3.461E3,6.44E2,9.71E2,3.51E2,4.35E2,6.45E2,2.32E2,1.911E3,2.018E3,2.48E2,6.73E2,1.926E3,1.535E3,1.92E2,4.52E2,5.73E2,3.98E2,1.92E2,1.59E2,3.3E2,1.05E2,3.58E2,2.87E2,1.79E2,5.3E1,1.288E3,6.23E2,7.57E2,1.261E3,1.82E2,6.6E1,2.12E2,4.61E2,1.76E2,1.75E3,5.51E2,9.84E2,1.4E1,1.78E2,5.2E1,4E2,2.75E2,2.98E2,3.15E2,8.3E1,5.1E1,1.41E2,1.25E2,3.4E1,6E0,3.24E2,6.2E1,4.3E1,3.9E1,3.19E2,1E2,1.87E2,7.7E1,1.02E2,4.3E1,1E1,5.84E2,7.04E2,5.49E2,7.4E1,3.43E2,4.14E2,7.59E2,5.02E2,1.68E2,1.4E1,4.5E1,2.1E1,6.6E1,1.46E2,4.13E2,4.8E1,8.9E1,8.7E1,1.006E3,7.44E2,4.49E2,1.02E2,6.5E1,9.19E2,6E0,8E0,5E1,1.28E2,4.7E1,5E0,1.88E2,2.12E2,2.22E2,5.3E1,7E1,2.28E2,1.47E2,1.68E2,7.8E1,5E0,6E0,4.5E1,1.15E2,2.6E1,9.5E1,3E1,3.1E1,3E0,3E0,3E0,3.19E2,5E0,5.2E1,1E1,4E1,3E0],"tree_param":{"num_deleted":"0","num_feature":"8","num_nodes":"127","size_leaf_vector":"1"}},{"base_weights":[3.8361305E-3,-2.757499E-1,1.0386401E0,-6.4265794E-1,-2.7164869E-2,7.3281235E-1,1.8643183E0,-2.900089E-1,-7.772143E-1,-1.3941346E-1,3.5242182E-1,5.107582E-1,1.0592226E0,1.5402018E0,2.1555917E0,-5.301424E-1,-1.7582378E-1,-9.489086E-1,-6.1382616E-1,-6.321507E-2,-4.907923E-1,1.4554144E-1,7.433206E-1,2.6477695E-1,7.307507E-1,8.185355E-1,1.4581624E0,1.2596786E0,1.9332645E0,1.0998362E-2,2.1830351E0,-6.8309796E-1,-3.7046456E-1,-1.0423509E-1,-7.9607135E-1,-8.2055837E-1,-1.0318143E0,-3.1184542E-1,-7.264629E-1,-2.4624914E-1,4.548415E-2,-5.973557E-1,-2.4961433E-1,2.4558142E-1,-5.9027344E-1,4.9470004E-1,1.1757728E0,-0E0,3.9985672E-1,6.471088E-1,1.1737367E0,6.0691833E-1,1.1280509E0,1.3365275E0,1.7513504E0,5.379693E-1,1.2966399E0,2.0991468E0,1.2504376E0,1.9503161E0,2.3202052E0,-1.892895E-2,-3.6452558E-2,-1.9646361E-2,2.9502166E-2,3.2835633E-3,-1.4940954E-2,-4.164221E-2,-6.20502E-3,-4.792094E-2,-3.713134E-2,-6.0663726E-2,-4.7840368E-2,-1.7974762E-2,1.9494476E-2,-2.7122933E-2,-4.0176507E-2,-0E0,-2.4514966E-2,1.1780324E-2,-3.9468147E-3,-2.7118415E-2,-4.4634964E-2,-6.28261E-3,-2.071406E-2,5.552203E-3,3.565098E-2,-3.1719796E-2,2.8458694E-2,2.7461836E-2,-2.366398E-2,6.330321E-2,1.8123122E-2,-1.1578188E-2,6.979988E-3,8.978881E-3,3.239096E-2,2.7296055E-2,4.3911237E-2,6.7760795E-2,5.527264E-3,9.023678E-2,2.672689E-2,5.8973897E-2,-0E0,3.503558E-2,7.021149E-2,9.3788765E-2,5.295999E-2,8.967875E-3,5.478503E-2,5.206266E-2,6.9374226E-2,8.478197E-2,1.13185994E-1,6.841125E-2,8.832805E-3,8.160081E-2,1.1488104E-1,7.197196E-2,1.18302085E-1],"categories":[],"categories_nodes":[],"categories_segments":[],"categories_sizes":[],"default_left":[0,0,0,0,0,0,0,0,0,0,0,0,0,0,0,0,0,0,0,0,0,0,0,0,0,0,0,0,0,0,0,0,0,0,0,0,0,0,0,0,0,0,0,0,0,0,0,0,0,0,0,0,0,0,0,0,0,0,0,0,0,0,0,0,0,0,0,0,0,0,0,0,0,0,0,0,0,0,0,0,0,0,0,0,0,0,0,0,0,0,0,0,0,0,0,0,0,0,0,0,0,0,0,0,0,0,0,0,0,0,0,0,0,0,0,0,0,0,0,0,0],"id":4,"left_children":[1,3,5,7,9,11,13,15,17,19,21,23,25,27,29,31,33,35,37,39,41,43,45,47,49,51,53,55,57,-1,59,61,63,65,67,69,71,73,75,77,79,81,83,85,87,89,91,93,95,97,99,101,103,105,107,109,111,113,115,117,119,-1,-1,-1,-1,-1,-1,-1,-1,-1,-1,-1,-1,-1,-1,-1,-1,-1,-1,-1,-1,-1,-1,-1,-1,-1,-1,-1,-1,-1,-1,-1,-1,-1,-1,-1,-1,-1,-1,-1,-1,-1,-1,-1,-1,-1,-1,-1,-1,-1,-1,-1,-1,-1,-1,-1,-1,-1,-1,-1,-1],"loss_changes":[3.3350273E3,8.276267E2,6.17542E2,1.7357642E2,2.3058011E2,1.2911505E2,5.8807373E1,2.7639732E1,7.365735E1,1.1175067E2,9.96765E1,5.7500763E1,6.8097046E1,3.2198853E1,1.7658936E1,7.6036835E0,3.042046E1,1.2705566E1,4.5996887E1,6.8352974E1,1.8887558E1,5.9661713E1,4.5160828E1,1.8087555E1,1.9918732E1,2.8878296E1,7.0148926E0,4.133972E0,1.1765137E1,0E0,5.9332275E0,1.9221802E0,3.7073765E0,2.0507732E1,1.5553818E0,4.618927E0,9.238525E0,1.2575893E1,1.3482544E1,7.695551E1,5.1011013E1,7.736023E0,4.5888157E0,4.4677483E1,5.3299065E0,1.4679306E1,1.0760666E1,5.5901294E0,1.8098946E1,1.0509933E1,1.6682968E1,2.2383408E1,1.0587128E1,7.242584E0,4.2648773E0,1.8760717E0,2.4420776E0,2.6054993E0,3.1451912E0,1.0560059E1,4.651245E0,0E0,0E0,0E0,0E0,0E0,0E0,0E0,0E0,0E0,0E0,0E0,0E0,0E0,0E0,0E0,0E0,0E0,0E0,0E0,0E0,0E0,0E0,0E0,0E0,0E0,0E0,0E0,0E0,0E0,0E0,0E0,0E0,0E0,0E0,0E0,0E0,0E0,0E0,0E0,0E0,0E0,0E0,0E0,0E0,0E0,0E0,0E0,0E0,0E0,0E0,0E0,0E0,0E0,0E0,0E0,0E0,0E0,0E0,0E0,0E0],"parents":[2147483647,0,0,1,1,2,2,3,3,4,4,5,5,6,6,7,7,8,8,9,9,10,10,11,11,12,12,13,13,14,14,15,15,16,16,17,17,18,18,19,19,20,20,21,21,22,22,23,23,24,24,25,25,26,26,27,27,28,28,30,30,31,31,32,32,33,33,34,34,35,35,36,36,37,37,38,38,39,39,40,40,41,41,42,42,43,43,44,44,45,45,46,46,47,47,48,48,49,49,50,50,51,51,52,52,53,53,54,54,55,55,56,56,57,57,58,58,59,59,60,60],"right_children":[2,4,6,8,10,12,14,16,18,20,22,24,26,28,30,32,34,36,38,40,42,44,46,48,50,52,54,56,58,-1,60,62,64,66,68,70,72,74,76,78,80,82,84,86,88,90,92,94,96,98,100,102,104,106,108,110,112,114,116,118,120,-1,-1,-1,-1,-1,-1,-1,-1,-1,-1,-1,-1,-1,-1,-1,-1,-1,-1,-1,-1,-1,-1,-1,-1,-1,-1,-1,-1,-1,-1,-1,-1,-1,-1,-1,-1,-1,-1,-1,-1,-1,-1,-1,-1,-1,-1,-1,-1,-1,-1,-1,-1,-1,-1,-1,-1,-1,-1,-1,-1],"split_conditions":[6.130735E-1,-5.478624E-1,1.6709563E0,-6.282198E-1,7.472036E-1,-4.5616806E-2,2.2689059E0,-7.729053E-1,-8.6977875E-1,1.1000447E0,5.103228E-2,9.6255124E-1,1.0445528E0,-1.2489884E-1,-2.5814825E-1,-9.3671346E-1,1.0719506E0,-1.6419652E-1,-3.9482093E-1,-1.716108E-1,1.0043269E-1,1.0719506E0,-9.725935E-2,-1.915558E-1,-8.807569E-3,6.6792154E-1,9.850497E-1,-9.594291E-1,9.78303E-1,1.0998362E-2,2.7882664E0,-9.1771924E-1,1.38146E0,-8.287058E-1,1.4857866E0,-1.1420847E0,5.7561874E-1,1.8571521E0,-4.4513902E-1,-2.8633666E-1,-9.812828E-2,1.764942E0,1.3622577E0,9.829854E-1,3.5719394E-3,1.1000447E0,1.0204444E0,-9.1771924E-1,-9.1771924E-1,1.3767587E0,1.8003975E0,-2.2756083E-1,1.0953624E0,-3.4644473E-1,1.0110797E0,4.811092E-1,1.8308645E0,-2.0112744E-1,1.1000447E0,-2.0418088E-1,-1.133962E0,-1.892895E-2,-3.6452558E-2,-1.9646361E-2,2.9502166E-2,3.2835633E-3,-1.4940954E-2,-4.164221E-2,-6.20502E-3,-4.792094E-2,-3.713134E-2,-6.0663726E-2,-4.7840368E-2,-1.7974762E-2,1.9494476E-2,-2.7122933E-2,-4.0176507E-2,-0E0,-2.4514966E-2,1.1780324E-2,-3.9468147E-3,-2.7118415E-2,-4.4634964E-2,-6.28261E-3,-2.071406E-2,5.552203E-3,3.565098E-2,-3.1719796E-2,2.8458694E-2,2.7461836E-2,-2.366398E-2,6.330321E-2,1.8123122E-2,-1.1578188E-2,6.979988E-3,8.978881E-3,3.239096E-2,2.7296055E-2,4.3911237E-2,6.7760795E-2,5.527264E-3,9.023678E-2,2.672689E-2,5.8973897E-2,-0E0,3.503558E-2,7.021149E-2,9.3788765E-2,5.295999E-2,8.967875E-3,5.478503E-2,5.206266E-2,6.9374226E-2,8.478197E-2,1.13185994E-1,6.841125E-2,8.832805E-3,8.160081E-2,1.1488104E-1,7.197196E-2,1.18302085E-1],"split_indices":[0,0,0,2,1,1,0,6,0,6,0,0,0,1,2,0,6,6,2,0,0,6,3,3,3,1,1,4,6,0,0,1,1,2,4,0,6,1,6,2,2,6,6,6,4,6,6,1,1,0,2,2,6,3,6,2,0,3,6,1,4,0,0,0,0,0,0,0,0,0,0,0,0,0,0,0,0,0,0,0,0,0,0,0,0,0,0,0,0,0,0,0,0,0,0,0,0,0,0,0,0,0,0,0,0,0,0,0,0,0,0,0,0,0,0,0,0,0,0,0,0],"split_type":[0,0,0,0,0,0,0,0,0,0,0,0,0,0,0,0,0,0,0,0,0,0,0,0,0,0,0,0,0,0,0,0,0,0,0,0,0,0,0,0,0,0,0,0,0,0,0,0,0,0,0,0,0,0,0,0,0,0,0,0,0,0,0,0,0,0,0,0,0,0,0,0,0,0,0,0,0,0,0,0,0,0,0,0,0,0,0,0,0,0,0,0,0,0,0,0,0,0,0,0,0,0,0,0,0,0,0,0,0,0,0,0,0,0,0,0,0,0,0,0,0],"sum_hessian":[1.1525E4,9.074E3,2.451E3,3.664E3,5.41E3,1.79E3,6.61E2,1.013E3,2.651E3,4.176E3,1.234E3,1.067E3,7.23E2,3.16E2,3.45E2,3.25E2,6.88E2,1.29E3,1.361E3,3.433E3,7.43E2,8.08E2,4.26E2,5.05E2,5.62E2,4.53E2,2.7E2,1.87E2,1.29E2,5E0,3.4E2,1.64E2,1.61E2,6.18E2,7E1,5.11E2,7.79E2,3.71E2,9.9E2,1.279E3,2.154E3,5.14E2,2.29E2,7.12E2,9.6E1,2.72E2,1.54E2,1.71E2,3.34E2,4.75E2,8.7E1,2.71E2,1.82E2,1.95E2,7.5E1,1E1,1.77E2,1.02E2,2.7E1,1.32E2,2.08E2,2.3E1,1.41E2,1.58E2,3E0,3.3E2,2.88E2,6.6E1,4E0,1.8E2,3.31E2,2.23E2,5.56E2,3.48E2,2.3E1,2.95E2,6.95E2,6.37E2,6.42E2,8.52E2,1.302E3,4.36E2,7.8E1,1.32E2,9.7E1,5.54E2,1.58E2,9.3E1,3E0,2.58E2,1.4E1,1.38E2,1.6E1,6.4E1,1.07E2,1.78E2,1.56E2,3.33E2,1.42E2,7.4E1,1.3E1,1.4E1,2.57E2,1.74E2,8E0,2E1,1.75E2,6.2E1,1.3E1,7E0,3E0,5E1,1.27E2,3.3E1,6.9E1,2.4E1,3E0,7.2E1,6E1,1.2E1,1.96E2],"tree_param":{"num_deleted":"0","num_feature":"8","num_nodes":"121","size_leaf_vector":"1"}},{"base_weights":[-7.3428946E-3,-2.7796176E-1,9.91811E-1,-5.6442636E-1,1.53266E-2,6.7775255E-1,1.7066678E0,-3.4896055E-1,-7.1980214E-1,5.7628405E-1,-1.7612974E-1,1.2833073E0,4.6243575E-1,1.4135656E0,2.0543194E0,-1.7027372E-2,-5.036739E-1,-8.888996E-1,-5.621338E-1,6.9467586E-1,-2.6831883E-1,-3.0764535E-1,1.0576992E-2,1.6968846E0,1.106539E0,2.6107574E-1,7.043493E-1,1.112958E0,1.5857965E0,1.0540101E-2,2.0806708E0,1.14043005E-1,-6.8218774E-1,-6.5753317E-1,-3.112394E-1,-7.241439E-1,-9.739907E-1,-2.2751255E-1,-6.375477E-1,8.743578E-1,1.7059937E-1,5.923964E-2,-4.426157E-1,1.6346823E-1,-3.4843013E-1,1.3668033E-1,-2.3166063E-1,1.8262995E0,3.541087E-1,7.798612E-1,1.3636485E0,4.1638E-1,4.1869186E-2,8.811552E-1,3.835796E-1,1.277067E0,8.253744E-1,1.7188507E0,1.0800269E0,2.0990474E0,3.486615E-2,5.9294205E-2,4.5652143E-4,-2.6628613E-2,-4.3638155E-2,-9.805696E-3,-3.77253E-2,-7.4521177E-3,-2.352067E-2,-1.1703714E-2,-4.005618E-2,-4.9215186E-2,1.1099562E-2,-3.437303E-3,-2.6100084E-2,-2.298469E-2,-3.6747143E-2,6.574337E-2,3.591953E-2,2.237179E-2,-1.2602999E-2,9.953869E-3,-3.4364656E-2,-2.4419481E-2,8.761696E-3,2.1729348E-2,-3.661031E-2,-1.1004317E-2,-2.6151434E-2,2.8956225E-2,3.745281E-3,-7.948499E-3,-2.4654552E-2,9.722679E-2,4.9135286E-2,2.595503E-2,-6.0949167E-3,4.1763704E-2,-1.2356933E-2,7.139048E-2,1.7705835E-2,2.4802072E-2,1.6158937E-4,-8.510827E-3,6.6301236E-3,4.9959686E-2,2.9176597E-2,2.0531308E-2,-9.014989E-3,1.7926356E-2,6.7207985E-2,2.6983334E-2,4.6760276E-2,9.315696E-2,5.9754845E-2,8.214213E-2,4.456065E-2,1.09101824E-1,8.992403E-2],"categories":[],"categories_nodes":[],"categories_segments":[],"categories_sizes":[],"default_left":[0,0,0,0,0,0,0,0,0,0,0,0,0,0,0,0,0,0,0,0,0,0,0,0,0,0,0,0,0,0,0,0,0,0,0,0,0,0,0,0,0,0,0,0,0,0,0,0,0,0,0,0,0,0,0,0,0,0,0,0,0,0,0,0,0,0,0,0,0,0,0,0,0,0,0,0,0,0,0,0,0,0,0,0,0,0,0,0,0,0,0,0,0,0,0,0,0,0,0,0,0,0,0,0,0,0,0,0,0,0,0,0,0,0,0,0,0,0,0],"id":5,"left_children":[1,3,5,7,9,11,13,15,17,19,21,23,25,27,29,31,33,35,37,39,41,43,45,47,49,51,53,55,57,-1,59,61,63,65,67,69,71,73,75,77,79,81,83,85,87,89,91,93,95,97,99,101,103,105,107,109,111,113,115,117,-1,-1,-1,-1,-1,-1,-1,-1,-1,-1,-1,-1,-1,-1,-1,-1,-1,-1,-1,-1,-1,-1,-1,-1,-1,-1,-1,-1,-1,-1,-1,-1,-1,-1,-1,-1,-1,-1,-1,-1,-1,-1,-1,-1,-1,-1,-1,-1,-1,-1,-1,-1,-1,-1,-1,-1,-1,-1,-1],"loss_changes":[3.1413235E3,7.681445E2,5.5448364E2,1.5447852E2,4.8536957E2,2.237569E2,7.3681885E1,9.956706E1,7.096753E1,1.1522223E2,8.275823E1,3.0813416E1,6.1680847E1,1.934784E1,1.5994995E1,5.4013596E1,3.88696E1,1.7265625E1,3.4920868E1,9.4760895E1,8.17168E0,3.8062057E1,4.2574104E1,2.2247345E1,2.5515625E1,2.363116E1,3.225949E1,6.0037384E0,1.5360352E1,0E0,6.849121E0,5.8006115E1,2.30299E0,3.2599945E1,1.5100307E1,1.649675E1,1.0778809E1,1.1967833E1,1.9220673E1,5.0449585E1,3.0437258E1,5.307675E0,2.7470684E0,3.8656227E1,4.05943E1,2.4954538E1,8.921097E0,9.865295E0,1.1239829E0,8.4032135E0,1.0780975E1,1.3343651E1,5.5993476E0,1.2292297E1,3.2540245E0,5.264038E0,1.1992111E0,1.2884155E1,4.3397217E0,3.9838867E0,0E0,0E0,0E0,0E0,0E0,0E0,0E0,0E0,0E0,0E0,0E0,0E0,0E0,0E0,0E0,0E0,0E0,0E0,0E0,0E0,0E0,0E0,0E0,0E0,0E0,0E0,0E0,0E0,0E0,0E0,0E0,0E0,0E0,0E0,0E0,0E0,0E0,0E0,0E0,0E0,0E0,0E0,0E0,0E0,0E0,0E0,0E0,0E0,0E0,0E0,0E0,0E0,0E0,0E0,0E0,0E0,0E0,0E0,0E0],"parents":[2147483647,0,0,1,1,2,2,3,3,4,4,5,5,6,6,7,7,8,8,9,9,10,10,11,11,12,12,13,13,14,14,15,15,16,16,17,17,18,18,19,19,20,20,21,21,22,22,23,23,24,24,25,25,26,26,27,27,28,28,30,30,31,31,32,32,33,33,34,34,35,35,36,36,37,37,38,38,39,39,40,40,41,41,42,42,43,43,44,44,45,45,46,46,47,47,48,48,49,49,50,50,51,51,52,52,53,53,54,54,55,55,56,56,57,57,58,58,59,59],"right_children":[2,4,6,8,10,12,14,16,18,20,22,24,26,28,30,32,34,36,38,40,42,44,46,48,50,52,54,56,58,-1,60,62,64,66,68,70,72,74,76,78,80,82,84,86,88,90,92,94,96,98,100,102,104,106,108,110,112,114,116,118,-1,-1,-1,-1,-1,-1,-1,-1,-1,-1,-1,-1,-1,-1,-1,-1,-1,-1,-1,-1,-1,-1,-1,-1,-1,-1,-1,-1,-1,-1,-1,-1,-1,-1,-1,-1,-1,-1,-1,-1,-1,-1,-1,-1,-1,-1,-1,-1,-1,-1,-1,-1,-1,-1,-1,-1,-1,-1,-1],"split_conditions":[6.130735E-1,-3.887416E-1,1.546064E0,-4.472588E-1,-5.6759607E-2,-4.589417E-2,2.2689059E0,-5.057595E-2,-7.650457E-1,1.1000447E0,1.3025142E-1,-7.696487E-2,9.846003E-1,-1.915558E-1,-2.5814825E-1,1.0625857E0,-8.6977875E-1,-1.6419652E-1,-6.313304E-2,7.609626E-1,-1.3410306E0,-1.4009448E0,1.3571999E-3,1.0579034E0,8.96299E-1,-4.0773252E-6,2.0324988E-3,-1.1549563E-2,8.7579834E-1,1.0540101E-2,1.3622577E0,-1.3759806E0,1.3716226E0,-9.761144E-1,2.7833082E-2,6.361412E-1,5.262161E0,1.0766329E0,-5.621984E-1,-9.783053E-2,-9.1337657E-1,1.5916941E0,5.262161E0,1.4184463E0,-5.715632E-1,-1.3060806E0,9.456984E-1,8.6581266E-1,1.3716226E0,1.2103199E0,1.0813153E0,1.0625857E0,7.2589123E-1,7.8592694E-1,1.1140919E0,-8.384736E-2,1.6709563E0,9.080674E-1,-3.843709E-2,7.8093404E-1,3.486615E-2,5.9294205E-2,4.5652143E-4,-2.6628613E-2,-4.3638155E-2,-9.805696E-3,-3.77253E-2,-7.4521177E-3,-2.352067E-2,-1.1703714E-2,-4.005618E-2,-4.9215186E-2,1.1099562E-2,-3.437303E-3,-2.6100084E-2,-2.298469E-2,-3.6747143E-2,6.574337E-2,3.591953E-2,2.237179E-2,-1.2602999E-2,9.953869E-3,-3.4364656E-2,-2.4419481E-2,8.761696E-3,2.1729348E-2,-3.661031E-2,-1.1004317E-2,-2.6151434E-2,2.8956225E-2,3.745281E-3,-7.948499E-3,-2.4654552E-2,9.722679E-2,4.9135286E-2,2.595503E-2,-6.0949167E-3,4.1763704E-2,-1.2356933E-2,7.139048E-2,1.7705835E-2,2.4802072E-2,1.6158937E-4,-8.510827E-3,6.6301236E-3,4.9959686E-2,2.9176597E-2,2.0531308E-2,-9.014989E-3,1.7926356E-2,6.7207985E-2,2.6983334E-2,4.6760276E-2,9.315696E-2,5.9754845E-2,8.214213E-2,4.456065E-2,1.09101824E-1,8.992403E-2],"split_indices":[0,0,0,2,5,5,0,5,0,6,0,5,0,3,2,6,0,6,5,7,7,7,5,6,0,5,5,5,7,0,6,7,6,2,5,7,2,6,6,5,6,6,2,6,6,7,7,7,6,7,6,6,0,7,6,5,0,6,5,7,0,0,0,0,0,0,0,0,0,0,0,0,0,0,0,0,0,0,0,0,0,0,0,0,0,0,0,0,0,0,0,0,0,0,0,0,0,0,0,0,0,0,0,0,0,0,0,0,0,0,0,0,0,0,0,0,0,0,0],"split_type":[0,0,0,0,0,0,0,0,0,0,0,0,0,0,0,0,0,0,0,0,0,0,0,0,0,0,0,0,0,0,0,0,0,0,0,0,0,0,0,0,0,0,0,0,0,0,0,0,0,0,0,0,0,0,0,0,0,0,0,0,0,0,0,0,0,0,0,0,0,0,0,0,0,0,0,0,0,0,0,0,0,0,0,0,0,0,0,0,0,0,0,0,0,0,0,0,0,0,0,0,0,0,0,0,0,0,0,0,0,0,0,0,0,0,0,0,0,0,0],"sum_hessian":[1.1616E4,9.141E3,2.475E3,4.624E3,4.517E3,1.721E3,7.54E2,1.939E3,2.685E3,1.149E3,3.368E3,4.5E2,1.271E3,4.12E2,3.42E2,6.17E2,1.322E3,1.293E3,1.392E3,1.008E3,1.41E2,1.976E3,1.392E3,1.32E2,3.18E2,6.95E2,5.76E2,1.53E2,2.59E2,5E0,3.37E2,5.16E2,1.01E2,7.33E2,5.89E2,4.44E2,8.49E2,2.57E2,1.135E3,7.5E2,2.58E2,4.9E1,9.2E1,1.57E2,1.819E3,9.16E2,4.76E2,1.2E2,1.2E1,1.42E2,1.76E2,4.06E2,2.89E2,3.7E2,2.06E2,9.5E1,5.8E1,2.03E2,5.6E1,3.32E2,5E0,4.5E1,4.71E2,5.9E1,4.2E1,1.28E2,6.05E2,2.93E2,2.96E2,6.1E1,3.83E2,8.42E2,7E0,1.68E2,8.9E1,4.04E2,7.31E2,1.94E2,5.56E2,1.56E2,1.02E2,4.2E1,7E0,8.6E1,6E0,1.21E2,3.6E1,1.05E3,7.69E2,1.11E2,8.05E2,3.74E2,1.02E2,1.04E2,1.6E1,9E0,3E0,1.35E2,7E0,1.65E2,1.1E1,3.4E2,6.6E1,8.6E1,2.03E2,2.63E2,1.07E2,1.97E2,9E0,7E0,8.8E1,1.8E1,4E1,1.57E2,4.6E1,1.2E1,4.4E1,2.55E2,7.7E1],"tree_param":{"num_deleted":"0","num_feature":"8","num_nodes":"119","size_leaf_vector":"1"}},{"base_weights":[-6.4928005E-3,-2.4828447E-1,9.810221E-1,-5.287127E-1,3.0122137E-2,6.2274474E-1,1.5493454E0,-2.957975E-1,-6.627983E-1,5.5500454E-1,-1.6316989E-1,1.0034262E0,3.4670424E-1,1.2256564E0,1.882771E0,5.3999413E-2,-4.4592568E-1,-8.523944E-1,-4.9155527E-1,1.4461584E-1,8.070722E-1,-2.6545998E-1,6.4709246E-2,4.781514E-1,1.1437652E0,5.174409E-1,1.6483875E-1,9.3640614E-1,1.5530332E0,1.9841024E0,1.5330606E0,-2.1579951E-1,2.809536E-1,-2.694097E-1,-5.729417E-1,-4.2761874E-1,-8.783555E-1,-3.129754E-1,-6.3966763E-1,-3.7855172E-1,2.1960492E-1,1.5931401E0,5.8302474E-1,2.123702E-1,-3.0489007E-1,2.8380233E-1,-7.438049E-2,-4.1341323E-1,5.274186E-1,1.822202E0,9.936977E-1,4.5633537E-1,1.2333219E0,4.5721754E-2,3.4680083E-1,8.3118814E-1,1.151203E0,1.6770961E0,1.2249293E0,1.2288849E-2,2.0044332E0,1.2301544E0,1.9269012E0,1.6399053E-3,-2.4636207E-2,2.3528395E-2,-6.0806605E-3,-2.994985E-2,-8.290972E-3,-3.321081E-2,-2.1403491E-2,-2.5321066E-2,2.3737736E-2,-4.4243578E-2,7.3581734E-3,8.290565E-4,-2.0191541E-2,-1.7446687E-2,-3.402951E-2,4.764754E-3,-2.704203E-2,1.1716206E-4,2.4767445E-2,5.2008014E-2,8.998338E-2,1.863803E-2,4.57897E-2,-1.3133021E-2,2.7921377E-2,-1.2690923E-2,-2.7706755E-2,3.9018538E-2,1.1076503E-2,-1.3441661E-2,1.8505821E-3,-5.625934E-3,-2.9297724E-2,3.4060463E-2,1.13434475E-2,9.89235E-2,5.5122226E-2,5.3399462E-2,1.4814603E-2,1.4341995E-2,3.187413E-2,3.8373575E-2,8.851551E-2,4.601477E-3,-1.4466782E-2,1.9809946E-2,3.9827093E-4,4.8435092E-2,3.339809E-2,6.594917E-2,3.8698602E-2,3.1684738E-2,8.5800834E-2,6.3809894E-2,2.628008E-2,8.836918E-2,1.0403037E-1,3.5313454E-2,6.420671E-2,9.964996E-2,3.8786057E-2],"categories":[],"categories_nodes":[],"categories_segments":[],"categories_sizes":[],"default_left":[0,0,0,0,0,0,0,0,0,0,0,0,0,0,0,0,0,0,0,0,0,0,0,0,0,0,0,0,0,0,0,0,0,0,0,0,0,0,0,0,0,0,0,0,0,0,0,0,0,0,0,0,0,0,0,0,0,0,0,0,0,0,0,0,0,0,0,0,0,0,0,0,0,0,0,0,0,0,0,0,0,0,0,0,0,0,0,0,0,0,0,0,0,0,0,0,0,0,0,0,0,0,0,0,0,0,0,0,0,0,0,0,0,0,0,0,0,0,0,0,0,0,0,0,0],"id":6,"left_children":[1,3,5,7,9,11,13,15,17,19,21,23,25,27,29,31,33,35,37,39,41,43,45,47,49,51,53,55,57,59,61,63,65,67,69,71,73,75,77,79,81,83,85,87,89,91,93,95,97,99,101,103,105,107,109,111,113,115,117,-1,119,121,123,-1,-1,-1,-1,-1,-1,-1,-1,-1,-1,-1,-1,-1,-1,-1,-1,-1,-1,-1,-1,-1,-1,-1,-1,-1,-1,-1,-1,-1,-1,-1,-1,-1,-1,-1,-1,-1,-1,-1,-1,-1,-1,-1,-1,-1,-1,-1,-1,-1,-1,-1,-1,-1,-1,-1,-1,-1,-1,-1,-1,-1,-1],"loss_changes":[2.7496404E3,7.2231964E2,4.60011E2,1.436499E2,4.71188E2,1.456883E2,9.1816895E1,8.860251E1,9.438013E1,1.2909528E2,7.9150635E1,4.234137E1,2.4935768E1,4.0624878E1,1.1808838E1,3.1111761E1,2.6217407E1,1.4778137E1,4.041092E1,1.8780834E1,1.3516772E2,4.42182E1,3.2100277E1,5.7200565E0,4.4740845E1,1.746585E1,8.463079E0,4.2690277E0,6.1221924E0,1.0909668E1,9.362869E0,1.603368E1,2.1159868E1,1.6758644E1,8.664276E0,6.0745583E0,8.924377E0,2.1004814E1,9.653564E0,4.7100964E0,2.4990866E1,1.73732E1,4.179132E1,2.9601673E1,2.7337585E1,1.2374214E1,1.3982496E1,2.2763896E-1,5.2550316E0,6.7337036E0,1.9183624E1,1.15456085E1,6.392559E0,3.715165E0,2.5507908E0,2.8928452E0,3.5800323E0,4.6878357E0,1.3361053E0,0E0,1.8066406E0,5.907669E-1,1.3729248E0,0E0,0E0,0E0,0E0,0E0,0E0,0E0,0E0,0E0,0E0,0E0,0E0,0E0,0E0,0E0,0E0,0E0,0E0,0E0,0E0,0E0,0E0,0E0,0E0,0E0,0E0,0E0,0E0,0E0,0E0,0E0,0E0,0E0,0E0,0E0,0E0,0E0,0E0,0E0,0E0,0E0,0E0,0E0,0E0,0E0,0E0,0E0,0E0,0E0,0E0,0E0,0E0,0E0,0E0,0E0,0E0,0E0,0E0,0E0,0E0,0E0,0E0],"parents":[2147483647,0,0,1,1,2,2,3,3,4,4,5,5,6,6,7,7,8,8,9,9,10,10,11,11,12,12,13,13,14,14,15,15,16,16,17,17,18,18,19,19,20,20,21,21,22,22,23,23,24,24,25,25,26,26,27,27,28,28,29,29,30,30,31,31,32,32,33,33,34,34,35,35,36,36,37,37,38,38,39,39,40,40,41,41,42,42,43,43,44,44,45,45,46,46,47,47,48,48,49,49,50,50,51,51,52,52,53,53,54,54,55,55,56,56,57,57,58,58,60,60,61,61,62,62],"right_children":[2,4,6,8,10,12,14,16,18,20,22,24,26,28,30,32,34,36,38,40,42,44,46,48,50,52,54,56,58,60,62,64,66,68,70,72,74,76,78,80,82,84,86,88,90,92,94,96,98,100,102,104,106,108,110,112,114,116,118,-1,120,122,124,-1,-1,-1,-1,-1,-1,-1,-1,-1,-1,-1,-1,-1,-1,-1,-1,-1,-1,-1,-1,-1,-1,-1,-1,-1,-1,-1,-1,-1,-1,-1,-1,-1,-1,-1,-1,-1,-1,-1,-1,-1,-1,-1,-1,-1,-1,-1,-1,-1,-1,-1,-1,-1,-1,-1,-1,-1,-1,-1,-1,-1,-1],"split_conditions":[6.6404885E-1,-3.887416E-1,1.4198068E0,-5.0276154E-1,-5.4597225E-2,-3.0184072E-2,2.0796514E0,-5.4597225E-2,-7.765427E-1,-2.834629E-1,2.6921305E-1,-9.1771924E-1,1.3571999E-3,-2.834629E-1,7.909198E-1,-8.358652E-1,2.3315607E-2,-9.671714E-2,-1.867788E-1,-7.9805183E-1,-9.536951E-2,-1.4009448E0,-2.2367232E-2,-9.75216E-1,-7.696487E-2,8.2648563E-1,1.0162565E0,1.8308645E0,-2.0443965E-2,-2.5814825E-1,2.7882664E0,-7.6755464E-1,6.6110545E-1,-1.1420847E0,4.0964612E-1,-9.783053E-2,5.262161E0,-6.605457E-2,-7.116714E-2,-1.1085275E0,-8.384372E-1,-2.2185118E-1,1.3025142E-1,-1.4808306E0,1.0255841E0,-1.3560091E0,-7.5915515E-1,-3.9569914E-2,-4.332446E-2,2.5363034E-1,8.6581266E-1,9.846003E-1,9.376148E-1,1.0605341E0,4.8562363E-2,-3.0391347E-3,9.2572695E-1,-1.080462E0,8.258698E-1,1.2288849E-2,-6.0059106E-1,8.508341E-1,5.5862885E-2,1.6399053E-3,-2.4636207E-2,2.3528395E-2,-6.0806605E-3,-2.994985E-2,-8.290972E-3,-3.321081E-2,-2.1403491E-2,-2.5321066E-2,2.3737736E-2,-4.4243578E-2,7.3581734E-3,8.290565E-4,-2.0191541E-2,-1.7446687E-2,-3.402951E-2,4.764754E-3,-2.704203E-2,1.1716206E-4,2.4767445E-2,5.2008014E-2,8.998338E-2,1.863803E-2,4.57897E-2,-1.3133021E-2,2.7921377E-2,-1.2690923E-2,-2.7706755E-2,3.9018538E-2,1.1076503E-2,-1.3441661E-2,1.8505821E-3,-5.625934E-3,-2.9297724E-2,3.4060463E-2,1.13434475E-2,9.89235E-2,5.5122226E-2,5.3399462E-2,1.4814603E-2,1.4341995E-2,3.187413E-2,3.8373575E-2,8.851551E-2,4.601477E-3,-1.4466782E-2,1.9809946E-2,3.9827093E-4,4.8435092E-2,3.339809E-2,6.594917E-2,3.8698602E-2,3.1684738E-2,8.5800834E-2,6.3809894E-2,2.628008E-2,8.836918E-2,1.0403037E-1,3.5313454E-2,6.420671E-2,9.964996E-2,3.8786057E-2],"split_indices":[0,0,0,2,5,5,0,5,0,1,0,1,5,1,7,0,5,5,2,4,5,7,5,4,5,1,0,0,5,2,0,2,7,0,4,5,2,5,5,4,1,0,0,7,7,7,1,2,5,2,7,0,0,7,5,5,7,4,7,0,1,7,5,0,0,0,0,0,0,0,0,0,0,0,0,0,0,0,0,0,0,0,0,0,0,0,0,0,0,0,0,0,0,0,0,0,0,0,0,0,0,0,0,0,0,0,0,0,0,0,0,0,0,0,0,0,0,0,0,0,0,0,0,0,0],"split_type":[0,0,0,0,0,0,0,0,0,0,0,0,0,0,0,0,0,0,0,0,0,0,0,0,0,0,0,0,0,0,0,0,0,0,0,0,0,0,0,0,0,0,0,0,0,0,0,0,0,0,0,0,0,0,0,0,0,0,0,0,0,0,0,0,0,0,0,0,0,0,0,0,0,0,0,0,0,0,0,0,0,0,0,0,0,0,0,0,0,0,0,0,0,0,0,0,0,0,0,0,0,0,0,0,0,0,0,0,0,0,0,0,0,0,0,0,0,0,0,0,0,0,0,0,0],"sum_hessian":[1.1514E4,9.25E3,2.264E3,4.608E3,4.642E3,1.39E3,8.74E2,1.685E3,2.923E3,1.249E3,3.393E3,5.83E2,8.07E2,4.46E2,4.28E2,5.06E2,1.179E3,1.385E3,1.538E3,4.76E2,7.73E2,2.342E3,1.051E3,1.24E2,4.59E2,4.15E2,3.92E2,2.39E2,2.07E2,3.28E2,1E2,2.31E2,2.75E2,4.95E2,6.84E2,8.1E1,1.304E3,6.99E2,8.39E2,5.9E1,4.17E2,1.7E2,6.03E2,1.78E2,2.164E3,4.08E2,6.43E2,6E0,1.18E2,8.1E1,3.78E2,3.84E2,3.1E1,2.38E2,1.54E2,1.64E2,7.5E1,1.47E2,6E1,4E0,3.24E2,5.9E1,4.1E1,1.22E2,1.09E2,1.87E2,8.8E1,1.17E2,3.78E2,4.17E2,2.67E2,7.5E1,6E0,1.296E3,8E0,1.51E2,5.48E2,1.05E2,7.34E2,1.5E1,4.4E1,2.34E2,1.83E2,4.8E1,1.22E2,3.71E2,2.32E2,7.5E1,1.03E2,1.798E3,3.66E2,4.4E1,3.64E2,2.34E2,4.09E2,3E0,3E0,7.7E1,4.1E1,6.5E1,1.6E1,3.41E2,3.7E1,2E2,1.84E2,1.8E1,1.3E1,2.1E2,2.8E1,1.34E2,2E1,8.6E1,7.8E1,5E1,2.5E1,6E0,1.41E2,5.5E1,5E0,8.5E1,2.39E2,7E0,5.2E1,3.8E1,3E0],"tree_param":{"num_deleted":"0","num_feature":"8","num_nodes":"125","size_leaf_vector":"1"}},{"base_weights":[2.430803E-3,-2.7686983E-1,7.7913666E-1,-5.163891E-1,-2.776215E-2,4.620106E-1,1.4122206E0,-1.3031809E-1,-5.886948E-1,5.352752E-1,-1.9123007E-1,1.0424106E0,2.6918483E-1,1.1243848E0,1.7914747E0,2.405026E-2,-5.977595E-1,-4.1379E-1,-7.4984056E-1,6.865588E-1,-1.1285857E-1,-2.4698299E-1,1.7312184E-1,6.164992E-1,1.2386208E0,4.0315923E-1,4.7641534E-2,8.884401E-1,1.5318165E0,1.8839836E0,1.469538E0,3.2908723E-1,-3.4714454E-1,-5.2884036E-1,-4.5035906E-2,4.8396707E-2,-5.084801E-1,-6.4373064E-1,-9.858389E-1,2.3970206E-1,9.577207E-1,1.1763857E-1,-4.0081927E-1,-2.0918393E-1,-5.8809525E-1,6.067886E-1,1.3063406E-2,1.3000358E0,5.325766E-1,1.933027E0,1.0564573E0,4.789345E-1,-1.4117127E-2,2.8637248E-1,-4.1196037E-2,1.3242792E0,7.7211666E-1,1.6402154E0,1.1004505E0,1.9069315E0,5.121692E-1,1.2069708E0,1.7789141E0,3.7838396E-2,3.5518706E-3,-2.8766993E-2,2.923033E-3,-1.1393589E-2,-3.198081E-2,2.0793825E-2,-3.0337211E-3,-1.9020183E-2,-3.5449695E-2,-1.8417343E-2,-4.2359713E-2,-5.165788E-2,-3.0640572E-2,2.4619063E-2,-3.076183E-3,6.762196E-2,3.0574173E-2,-9.113503E-4,2.4467882E-2,-2.2536874E-2,3.1765547E-2,2.4773704E-3,-1.3743396E-2,-3.549609E-2,-1.8208286E-2,3.949942E-2,-2.5033435E-2,-1.3216928E-2,9.705822E-3,3.665987E-2,9.167897E-2,1.5243729E-2,3.6440734E-2,2.6555732E-2,9.9279754E-2,5.515442E-2,6.676817E-4,2.9880181E-2,1.0177281E-2,3.1620294E-2,-9.583899E-3,2.1495374E-2,-1.1373821E-2,2.4991136E-3,-2.483158E-2,1.126672E-2,7.062828E-2,3.1601414E-2,4.6519015E-2,8.3661884E-2,1.0452074E-2,8.146741E-2,4.527485E-2,8.312809E-2,9.966313E-2,4.2599034E-2,9.6576987E-4,5.0529208E-2,8.326743E-2,9.5947675E-2,1.2740378E-2],"categories":[],"categories_nodes":[],"categories_segments":[],"categories_sizes":[],"default_left":[0,0,0,0,0,0,0,0,0,0,0,0,0,0,0,0,0,0,0,0,0,0,0,0,0,0,0,0,0,0,0,0,0,0,0,0,0,0,0,0,0,0,0,0,0,0,0,0,0,0,0,0,0,0,0,0,0,0,0,0,0,0,0,0,0,0,0,0,0,0,0,0,0,0,0,0,0,0,0,0,0,0,0,0,0,0,0,0,0,0,0,0,0,0,0,0,0,0,0,0,0,0,0,0,0,0,0,0,0,0,0,0,0,0,0,0,0,0,0,0,0,0,0,0,0],"id":7,"left_children":[1,3,5,7,9,11,13,15,17,19,21,23,25,27,29,31,33,35,37,39,41,43,45,47,49,51,53,55,57,59,61,63,65,67,-1,69,71,73,75,77,79,81,83,85,87,89,91,93,95,97,99,101,103,105,107,109,111,113,115,117,119,121,123,-1,-1,-1,-1,-1,-1,-1,-1,-1,-1,-1,-1,-1,-1,-1,-1,-1,-1,-1,-1,-1,-1,-1,-1,-1,-1,-1,-1,-1,-1,-1,-1,-1,-1,-1,-1,-1,-1,-1,-1,-1,-1,-1,-1,-1,-1,-1,-1,-1,-1,-1,-1,-1,-1,-1,-1,-1,-1,-1,-1,-1,-1],"loss_changes":[2.518007E3,5.0930066E2,6.1551624E2,1.21338135E2,3.853413E2,2.2868042E2,1.0947681E2,4.971656E1,1.0287207E2,9.249985E1,6.596803E1,4.1670654E1,4.558529E1,5.463385E1,1.0000366E1,5.8764614E1,2.951126E0,7.709613E1,4.6932007E1,9.2225006E1,1.1956438E1,3.609308E1,2.9846664E1,8.474724E0,4.167932E1,3.0344467E1,1.2358325E1,1.7678345E1,7.8807373E0,9.421631E0,5.9212036E0,3.1316889E1,2.174371E1,4.5017853E0,0E0,1.2085184E1,3.714142E1,7.341467E1,9.598877E0,2.2146286E1,6.3893066E1,5.106415E0,4.4056396E0,4.3134216E1,7.272621E0,2.3959225E1,1.5915222E1,3.540306E0,6.2429543E0,3.9261475E0,1.3395874E1,2.6301865E1,1.7067127E1,1.1771373E1,1.7676447E1,6.9885864E0,5.8405E0,7.401825E0,3.0142288E0,3.324585E0,1.0687555E0,3.3605728E0,8.898239E0,0E0,0E0,0E0,0E0,0E0,0E0,0E0,0E0,0E0,0E0,0E0,0E0,0E0,0E0,0E0,0E0,0E0,0E0,0E0,0E0,0E0,0E0,0E0,0E0,0E0,0E0,0E0,0E0,0E0,0E0,0E0,0E0,0E0,0E0,0E0,0E0,0E0,0E0,0E0,0E0,0E0,0E0,0E0,0E0,0E0,0E0,0E0,0E0,0E0,0E0,0E0,0E0,0E0,0E0,0E0,0E0,0E0,0E0,0E0,0E0,0E0,0E0],"parents":[2147483647,0,0,1,1,2,2,3,3,4,4,5,5,6,6,7,7,8,8,9,9,10,10,11,11,12,12,13,13,14,14,15,15,16,16,17,17,18,18,19,19,20,20,21,21,22,22,23,23,24,24,25,25,26,26,27,27,28,28,29,29,30,30,31,31,32,32,33,33,35,35,36,36,37,37,38,38,39,39,40,40,41,41,42,42,43,43,44,44,45,45,46,46,47,47,48,48,49,49,50,50,51,51,52,52,53,53,54,54,55,55,56,56,57,57,58,58,59,59,60,60,61,61,62,62],"right_children":[2,4,6,8,10,12,14,16,18,20,22,24,26,28,30,32,34,36,38,40,42,44,46,48,50,52,54,56,58,60,62,64,66,68,-1,70,72,74,76,78,80,82,84,86,88,90,92,94,96,98,100,102,104,106,108,110,112,114,116,118,120,122,124,-1,-1,-1,-1,-1,-1,-1,-1,-1,-1,-1,-1,-1,-1,-1,-1,-1,-1,-1,-1,-1,-1,-1,-1,-1,-1,-1,-1,-1,-1,-1,-1,-1,-1,-1,-1,-1,-1,-1,-1,-1,-1,-1,-1,-1,-1,-1,-1,-1,-1,-1,-1,-1,-1,-1,-1,-1,-1,-1,-1,-1,-1],"split_conditions":[4.189892E-1,-4.3052986E-1,1.2944946E0,-7.6136045E-2,-6.259234E-2,-4.7480855E-2,2.0796514E0,1.0766329E0,-5.621984E-1,1.0204444E0,1.1436138E0,-5.21309E-1,1.3571999E-3,-4.5616806E-2,7.909198E-1,6.710912E-1,1.6947064E0,6.41134E-1,-4.12359E-1,-2.834629E-1,-1.2261949E0,1.3622577E0,-1.3410306E0,-1.2960949E0,-8.465773E-2,1.0813153E0,-9.2662334E-1,-3.7294995E-2,9.080674E-1,1.1328214E0,2.7882664E0,-4.7791564E-1,3.3665236E-2,-1.2711306E0,-4.5035906E-2,-4.5395806E-2,9.007627E-1,1.0579034E0,7.114076E-1,6.461269E-1,-8.80519E-2,1.1712698E-1,5.7060175E0,-9.515877E-1,-8.467376E-1,1.0204444E0,-1.4536192E-1,-1.3460234E0,-6.250399E-2,-3.4086037E-1,1.1000447E0,7.8592694E-1,-1.4009448E0,9.970325E-1,-5.621984E-1,-3.1485093E-1,1.6040741E0,1.1853555E0,-1.4159235E0,-5.21309E-1,-5.1130354E-2,-4.824067E-2,-7.916348E-1,3.7838396E-2,3.5518706E-3,-2.8766993E-2,2.923033E-3,-1.1393589E-2,-3.198081E-2,2.0793825E-2,-3.0337211E-3,-1.9020183E-2,-3.5449695E-2,-1.8417343E-2,-4.2359713E-2,-5.165788E-2,-3.0640572E-2,2.4619063E-2,-3.076183E-3,6.762196E-2,3.0574173E-2,-9.113503E-4,2.4467882E-2,-2.2536874E-2,3.1765547E-2,2.4773704E-3,-1.3743396E-2,-3.549609E-2,-1.8208286E-2,3.949942E-2,-2.5033435E-2,-1.3216928E-2,9.705822E-3,3.665987E-2,9.167897E-2,1.5243729E-2,3.6440734E-2,2.6555732E-2,9.9279754E-2,5.515442E-2,6.676817E-4,2.9880181E-2,1.0177281E-2,3.1620294E-2,-9.583899E-3,2.1495374E-2,-1.1373821E-2,2.4991136E-3,-2.483158E-2,1.126672E-2,7.062828E-2,3.1601414E-2,4.6519015E-2,8.3661884E-2,1.0452074E-2,8.146741E-2,4.527485E-2,8.312809E-2,9.966313E-2,4.2599034E-2,9.6576987E-4,5.0529208E-2,8.326743E-2,9.5947675E-2,1.2740378E-2],"split_indices":[0,0,0,5,5,5,0,6,6,6,1,1,5,1,7,7,6,7,7,1,7,6,7,7,5,6,7,5,6,6,0,6,1,7,0,5,7,6,6,7,5,0,3,7,7,6,0,7,3,3,6,7,7,6,6,3,0,7,7,1,5,3,6,0,0,0,0,0,0,0,0,0,0,0,0,0,0,0,0,0,0,0,0,0,0,0,0,0,0,0,0,0,0,0,0,0,0,0,0,0,0,0,0,0,0,0,0,0,0,0,0,0,0,0,0,0,0,0,0,0,0,0,0,0,0],"split_type":[0,0,0,0,0,0,0,0,0,0,0,0,0,0,0,0,0,0,0,0,0,0,0,0,0,0,0,0,0,0,0,0,0,0,0,0,0,0,0,0,0,0,0,0,0,0,0,0,0,0,0,0,0,0,0,0,0,0,0,0,0,0,0,0,0,0,0,0,0,0,0,0,0,0,0,0,0,0,0,0,0,0,0,0,0,0,0,0,0,0,0,0,0,0,0,0,0,0,0,0,0,0,0,0,0,0,0,0,0,0,0,0,0,0,0,0,0,0,0,0,0,0,0,0,0],"sum_hessian":[1.1605E4,8.536E3,3.069E3,4.351E3,4.185E3,2.046E3,1.023E3,6.87E2,3.664E3,9.41E2,3.244E3,5.09E2,1.537E3,5.84E2,4.39E2,5.17E2,1.7E2,1.759E3,1.905E3,7.63E2,1.78E2,2.814E3,4.3E2,1.62E2,3.47E2,9.57E2,5.8E2,3.72E2,2.12E2,3.37E2,1.02E2,2.84E2,2.33E2,1.41E2,2.9E1,2.99E2,1.46E3,1.317E3,5.88E2,2.89E2,4.74E2,9.9E1,7.9E1,2.535E3,2.79E2,1.15E2,3.15E2,1.6E1,1.46E2,7E1,2.77E2,8.1E2,1.47E2,1.57E2,4.23E2,7.6E1,2.96E2,1.67E2,4.5E1,3.31E2,6E0,5.8E1,4.4E1,1.06E2,1.78E2,1.49E2,8.4E1,3.9E1,1.02E2,6.8E1,2.31E2,8.93E2,5.67E2,5.61E2,7.56E2,5.2E2,6.8E1,1.57E2,1.32E2,2.2E2,2.54E2,7.3E1,2.6E1,7.6E1,3E0,5.13E2,2.022E3,1.79E2,1E2,9.9E1,1.6E1,1.24E2,1.91E2,9E0,7E0,6.9E1,7.7E1,3E0,6.7E1,2.65E2,1.2E1,5.65E2,2.45E2,3.1E1,1.16E2,1.23E2,3.4E1,3.53E2,7E1,6E0,7E1,1.6E2,1.36E2,1.63E2,4E0,1E1,3.5E1,9.2E1,2.39E2,3E0,3E0,4.3E1,1.5E1,4E1,4E0],"tree_param":{"num_deleted":"0","num_feature":"8","num_nodes":"125","size_leaf_vector":"1"}},{"base_weights":[-5.0530178E-3,-2.2850211E-1,8.6178404E-1,-4.675035E-1,3.5942703E-2,5.613325E-1,1.3720385E0,-3.1294116E-1,-6.1188495E-1,-2.1744022E-2,6.832442E-1,4.6520796E-1,1.0498493E0,1.1009405E0,1.6654506E0,2.3661287E-1,-4.383181E-1,-3.4819826E-1,-7.924117E-1,4.665559E-2,-3.6850983E-1,1.2506648E0,2.6280373E-1,3.4319407E-1,6.786967E-1,7.754627E-1,1.3283731E0,8.7558174E-1,1.4691623E0,5.732846E-1,1.707038E0,7.008087E-1,1.6164382E-1,-3.189457E-1,-5.901351E-1,1.1700073E-2,-6.999275E-1,-6.909926E-1,-9.7064406E-1,1.4222817E-1,-3.279892E-1,1.7274455E-3,-4.857453E-1,8.660304E-1,1.6127629E0,5.2965987E-1,-9.583319E-2,4.070776E-1,-6.838563E-2,5.9627336E-1,1.1135119E0,1.8571152E-1,8.906918E-1,1.3596835E0,2.772518E-3,7.667478E-1,1.1477158E0,1.6015643E0,9.7061294E-1,1.0073284E0,-3.2494303E-2,1.4907017E0,1.9353089E0,5.6771327E-2,1.9862546E-2,3.971386E-3,2.2265334E-2,-1.9626658E-2,-2.4184997E-3,-2.1442153E-2,-3.8335692E-2,3.4985814E-2,-8.3258925E-3,-2.1478882E-2,-4.3494854E-2,-5.4745316E-3,-3.7068795E-2,-4.945616E-2,-2.659062E-2,9.601728E-2,6.470851E-3,-4.9017384E-3,-3.1630557E-2,1.1440667E-2,-3.413753E-2,-2.9100755E-2,-1.7065039E-2,3.6595087E-2,8.3404474E-2,3.062906E-2,9.421357E-2,6.838605E-2,1.2783307E-2,-1.01416735E-2,2.423639E-2,2.7451036E-2,1.1656522E-2,2.6396444E-2,-9.731277E-3,2.6077366E-2,4.800959E-2,6.487493E-2,3.474877E-2,3.3748228E-2,-4.0468774E-3,4.9617648E-2,1.284648E-2,5.967437E-2,8.560502E-2,4.352701E-2,2.554038E-2,6.0572367E-2,2.8522506E-2,9.665241E-2,7.538724E-2,2.4654095E-3,5.2162047E-2,6.2367786E-2,6.5213963E-3,6.1682966E-2,9.188713E-2,4.352524E-2,9.79233E-2],"categories":[],"categories_nodes":[],"categories_segments":[],"categories_sizes":[],"default_left":[0,0,0,0,0,0,0,0,0,0,0,0,0,0,0,0,0,0,0,0,0,0,0,0,0,0,0,0,0,0,0,0,0,0,0,0,0,0,0,0,0,0,0,0,0,0,0,0,0,0,0,0,0,0,0,0,0,0,0,0,0,0,0,0,0,0,0,0,0,0,0,0,0,0,0,0,0,0,0,0,0,0,0,0,0,0,0,0,0,0,0,0,0,0,0,0,0,0,0,0,0,0,0,0,0,0,0,0,0,0,0,0,0,0,0,0,0,0,0,0,0,0,0],"id":8,"left_children":[1,3,5,7,9,11,13,15,17,19,21,23,25,27,29,31,33,35,37,39,41,43,45,47,49,51,53,55,57,59,61,63,65,67,69,71,73,75,77,79,81,83,85,87,89,91,93,95,97,99,101,103,105,107,-1,109,111,113,115,117,-1,119,121,-1,-1,-1,-1,-1,-1,-1,-1,-1,-1,-1,-1,-1,-1,-1,-1,-1,-1,-1,-1,-1,-1,-1,-1,-1,-1,-1,-1,-1,-1,-1,-1,-1,-1,-1,-1,-1,-1,-1,-1,-1,-1,-1,-1,-1,-1,-1,-1,-1,-1,-1,-1,-1,-1,-1,-1,-1,-1,-1,-1],"loss_changes":[2.2436907E3,5.821566E2,3.6298682E2,1.0768054E2,1.633719E2,6.9609955E1,6.780835E1,1.6128427E2,1.1861627E2,9.530347E1,8.49268E1,3.227771E1,1.7483185E1,3.665088E1,1.7870117E1,1.4938612E1,3.424472E1,1.2894237E2,2.5970093E1,1.2015643E2,2.8783325E1,1.9525253E1,1.9904966E1,2.1069946E1,1.5435944E1,8.289467E0,4.5657806E0,7.458374E0,9.607819E0,9.715855E0,1.6723267E1,7.3115807E0,8.6811E0,2.1221748E1,2.3390045E1,6.196871E1,2.3161255E1,2.7637573E1,3.6603088E0,6.045957E1,4.763845E1,2.4980474E1,6.7035675E0,6.7151413E0,1.9506012E1,2.6813175E1,5.5988264E0,1.6879684E1,8.199516E0,9.79361E0,4.366394E0,2.9841278E0,6.3851547E0,4.518799E0,0E0,4.9692E0,2.073944E0,9.3984985E-1,2.4488869E0,2.435773E0,0E0,1.6337006E1,2.7711792E0,0E0,0E0,0E0,0E0,0E0,0E0,0E0,0E0,0E0,0E0,0E0,0E0,0E0,0E0,0E0,0E0,0E0,0E0,0E0,0E0,0E0,0E0,0E0,0E0,0E0,0E0,0E0,0E0,0E0,0E0,0E0,0E0,0E0,0E0,0E0,0E0,0E0,0E0,0E0,0E0,0E0,0E0,0E0,0E0,0E0,0E0,0E0,0E0,0E0,0E0,0E0,0E0,0E0,0E0,0E0,0E0,0E0,0E0,0E0,0E0],"parents":[2147483647,0,0,1,1,2,2,3,3,4,4,5,5,6,6,7,7,8,8,9,9,10,10,11,11,12,12,13,13,14,14,15,15,16,16,17,17,18,18,19,19,20,20,21,21,22,22,23,23,24,24,25,25,26,26,27,27,28,28,29,29,30,30,31,31,32,32,33,33,34,34,35,35,36,36,37,37,38,38,39,39,40,40,41,41,42,42,43,43,44,44,45,45,46,46,47,47,48,48,49,49,50,50,51,51,52,52,53,53,55,55,56,56,57,57,58,58,59,59,61,61,62,62],"right_children":[2,4,6,8,10,12,14,16,18,20,22,24,26,28,30,32,34,36,38,40,42,44,46,48,50,52,54,56,58,60,62,64,66,68,70,72,74,76,78,80,82,84,86,88,90,92,94,96,98,100,102,104,106,108,-1,110,112,114,116,118,-1,120,122,-1,-1,-1,-1,-1,-1,-1,-1,-1,-1,-1,-1,-1,-1,-1,-1,-1,-1,-1,-1,-1,-1,-1,-1,-1,-1,-1,-1,-1,-1,-1,-1,-1,-1,-1,-1,-1,-1,-1,-1,-1,-1,-1,-1,-1,-1,-1,-1,-1,-1,-1,-1,-1,-1,-1,-1,-1,-1,-1,-1],"split_conditions":[6.3496506E-1,-3.5724294E-1,1.4198068E0,-5.621984E-1,1.540024E0,6.6792154E-1,2.0796514E0,6.41134E-1,-1.0564377E0,1.0859976E0,-1.3560091E0,1.0445528E0,8.96299E-1,-1.2489884E-1,-1.133962E0,-6.5421563E-1,9.1074836E-1,1.0579034E0,-1.3275895E-1,9.2572695E-1,-1.4009448E0,9.9235016E-1,-5.621984E-1,1.0766329E0,3.507934E-1,-7.726174E-1,1.0953624E0,-9.276653E-2,8.987026E-1,5.912055E-1,2.7882664E0,5.7123405E-1,7.190269E-2,-7.4012864E-1,-9.929769E-1,-1.3560091E0,1.4184463E0,-9.67814E-3,6.1307776E-1,-9.4615316E-1,-9.3678844E-1,1.4324934E0,1.0043269E-1,-1.3909591E0,-1.4408877E0,6.211626E-1,3.365152E-1,7.3599833E-1,-1.4259092E0,-1.5322758E-2,6.211626E-1,-1.3060806E0,1.0391738E0,1.6985881E0,2.772518E-3,8.608198E-1,1.2203056E0,-1.2311877E0,-9.594291E-1,1.460742E0,-3.2494303E-2,-4.5616806E-2,-5.4161453E-1,5.6771327E-2,1.9862546E-2,3.971386E-3,2.2265334E-2,-1.9626658E-2,-2.4184997E-3,-2.1442153E-2,-3.8335692E-2,3.4985814E-2,-8.3258925E-3,-2.1478882E-2,-4.3494854E-2,-5.4745316E-3,-3.7068795E-2,-4.945616E-2,-2.659062E-2,9.601728E-2,6.470851E-3,-4.9017384E-3,-3.1630557E-2,1.1440667E-2,-3.413753E-2,-2.9100755E-2,-1.7065039E-2,3.6595087E-2,8.3404474E-2,3.062906E-2,9.421357E-2,6.838605E-2,1.2783307E-2,-1.01416735E-2,2.423639E-2,2.7451036E-2,1.1656522E-2,2.6396444E-2,-9.731277E-3,2.6077366E-2,4.800959E-2,6.487493E-2,3.474877E-2,3.3748228E-2,-4.0468774E-3,4.9617648E-2,1.284648E-2,5.967437E-2,8.560502E-2,4.352701E-2,2.554038E-2,6.0572367E-2,2.8522506E-2,9.665241E-2,7.538724E-2,2.4654095E-3,5.2162047E-2,6.2367786E-2,6.5213963E-3,6.1682966E-2,9.188713E-2,4.352524E-2,9.79233E-2],"split_indices":[0,0,0,6,1,1,0,7,7,6,7,0,0,1,4,4,7,6,7,7,7,6,6,6,1,4,6,3,6,7,0,7,3,6,6,7,6,6,6,6,6,6,0,7,7,7,0,7,7,3,7,7,6,1,0,7,7,7,4,1,0,1,3,0,0,0,0,0,0,0,0,0,0,0,0,0,0,0,0,0,0,0,0,0,0,0,0,0,0,0,0,0,0,0,0,0,0,0,0,0,0,0,0,0,0,0,0,0,0,0,0,0,0,0,0,0,0,0,0,0,0,0,0],"split_type":[0,0,0,0,0,0,0,0,0,0,0,0,0,0,0,0,0,0,0,0,0,0,0,0,0,0,0,0,0,0,0,0,0,0,0,0,0,0,0,0,0,0,0,0,0,0,0,0,0,0,0,0,0,0,0,0,0,0,0,0,0,0,0,0,0,0,0,0,0,0,0,0,0,0,0,0,0,0,0,0,0,0,0,0,0,0,0,0,0,0,0,0,0,0,0,0,0,0,0,0,0,0,0,0,0,0,0,0,0,0,0,0,0,0,0,0,0,0,0,0,0,0,0],"sum_hessian":[1.1582E4,9.209E3,2.373E3,4.837E3,4.372E3,1.495E3,8.78E2,2.338E3,2.499E3,4.015E3,3.57E2,1.251E3,2.44E2,4.59E2,4.19E2,4.34E2,1.904E3,1.017E3,1.482E3,3.354E3,6.61E2,1.51E2,2.06E2,7.98E2,4.53E2,1.25E2,1.19E2,2.87E2,1.72E2,1.6E1,4.03E2,5.9E1,3.75E2,1.068E3,8.36E2,5.03E2,5.14E2,9.48E2,5.34E2,2.673E3,6.81E2,1.59E2,5.02E2,7.5E1,7.6E1,1.18E2,8.8E1,6.91E2,1.07E2,3.83E2,7E1,2.1E1,1.04E2,1.16E2,3E0,2.08E2,7.9E1,1.34E2,3.8E1,1.2E1,4E0,2.11E2,1.92E2,2.3E1,3.6E1,2.92E2,8.3E1,8.39E2,2.29E2,4.39E2,3.97E2,1.03E2,4E2,2E2,3.14E2,7.6E1,8.72E2,5.11E2,2.3E1,1.8E1,2.655E3,3.89E2,2.92E2,1.2E2,3.9E1,2.99E2,2.03E2,6.6E1,9E0,1.7E1,5.9E1,2.8E1,9E1,7.5E1,1.3E1,3.79E2,3.12E2,1.8E1,8.9E1,3.2E2,6.3E1,4.7E1,2.3E1,7E0,1.4E1,8.9E1,1.5E1,8.2E1,3.4E1,1.46E2,6.2E1,7E1,9E0,2.5E1,1.09E2,3E0,3.5E1,9E0,3E0,1.24E2,8.7E1,5E0,1.87E2],"tree_param":{"num_deleted":"0","num_feature":"8","num_nodes":"123","size_leaf_vector":"1"}},{"base_weights":[-1.9097531E-3,-1.19071595E-1,5.294879E-1,2.656161E-1,-2.7373114E-1,7.196595E-1,-2.5801834E-1,4.4266212E-1,-4.4026884E-1,-2.1476366E-1,-5.9605247E-1,8.431713E-1,-4.622804E-2,-5.827578E-2,-5.7710403E-1,1.2318377E-1,6.6412586E-1,-3.1224746E-1,-7.5890154E-1,-1.8134324E-2,-3.889786E-1,-5.2247405E-1,-8.604574E-1,5.651232E-1,1.158899E0,1.5318194E-1,-3.1132418E-1,-7.1422276E-3,-3.7078166E-1,-4.3788558E-1,-8.301114E-1,-2.3712194E-2,3.0637422E-1,1.0302122E0,5.2240604E-1,-2.109927E-1,-4.428173E-1,-6.033157E-1,-8.161565E-1,-1.07552946E-1,2.572103E-1,-4.305745E-1,-1.5182178E-1,-6.470173E-1,-3.5874927E-1,-7.4715245E-1,-9.207191E-1,8.669086E-1,2.1244511E-1,9.391035E-1,1.5413182E0,-1.382662E-1,5.1660573E-1,2.777241E-1,-3.7305415E-1,2.7194607E-1,-1.3700767E-1,4.604529E-3,-4.3670356E-1,-5.277389E-1,1.6387793E-1,-4.321514E-2,-5.129727E-1,-1.5082317E-2,1.851318E-3,-3.3026062E-2,1.7587544E-2,5.7170517E-3,5.760173E-2,1.986461E-2,4.2371053E-2,-3.0596206E-2,-8.7135965E-3,-2.553147E-2,-1.0442878E-2,-1.9562854E-2,-3.403698E-2,-4.2648483E-2,-2.1805106E-2,-2.0995056E-2,-3.7643206E-3,-1.4152095E-3,1.9349318E-2,-1.745821E-2,-3.996433E-2,-1.48650175E-2,-3.7410092E-3,-2.5525391E-2,-3.7247E-2,-1.3308621E-2,-2.486578E-2,-2.4199741E-2,-3.9355546E-2,-4.6781193E-2,-2.4266178E-2,3.205752E-2,5.8614235E-2,1.5152784E-2,-1.2432833E-2,3.812201E-2,6.879523E-2,-1.4497771E-2,7.8281574E-2,2.917835E-2,-1.7280174E-2,-2.475751E-2,3.3073157E-2,3.2548454E-2,-3.146705E-3,-2.3181519E-2,2.3968373E-3,2.7906016E-2,3.0229145E-3,-1.0462337E-2,1.4248728E-2,-2.8354341E-2,-1.2657784E-2,-1.897235E-2,-3.7894156E-2,5.4144587E-2,-1.5100839E-2,-3.311005E-2,-8.659712E-3],"categories":[],"categories_nodes":[],"categories_segments":[],"categories_sizes":[],"default_left":[0,0,0,0,0,0,0,0,0,0,0,0,0,0,0,0,0,0,0,0,0,0,0,0,0,0,0,0,0,0,0,0,0,0,0,0,0,0,0,0,0,0,0,0,0,0,0,0,0,0,0,0,0,0,0,0,0,0,0,0,0,0,0,0,0,0,0,0,0,0,0,0,0,0,0,0,0,0,0,0,0,0,0,0,0,0,0,0,0,0,0,0,0,0,0,0,0,0,0,0,0,0,0,0,0,0,0,0,0,0,0,0,0,0,0,0,0,0,0,0,0,0,0],"id":9,"left_children":[1,3,5,7,9,11,13,15,17,19,21,23,25,27,29,31,33,35,37,39,41,43,45,47,49,51,53,55,57,59,61,63,65,67,69,71,73,75,77,79,81,83,85,87,89,91,93,95,97,99,101,103,105,107,109,111,113,-1,115,117,119,-1,121,-1,-1,-1,-1,-1,-1,-1,-1,-1,-1,-1,-1,-1,-1,-1,-1,-1,-1,-1,-1,-1,-1,-1,-1,-1,-1,-1,-1,-1,-1,-1,-1,-1,-1,-1,-1,-1,-1,-1,-1,-1,-1,-1,-1,-1,-1,-1,-1,-1,-1,-1,-1,-1,-1,-1,-1,-1,-1,-1,-1],"loss_changes":[7.182479E2,5.6248566E2,3.123344E2,3.3899994E2,1.279516E2,1.5894568E2,2.577924E1,1.5323172E2,2.1846657E1,1.9527863E2,1.9683716E1,1.2611328E2,1.2433402E1,3.9704223E0,5.0045433E0,2.3958467E1,6.571515E1,4.997307E0,7.463989E-1,6.599681E1,2.969754E1,1.6347E1,6.815796E-1,8.176784E1,5.512506E1,1.4302434E1,3.785695E0,7.8886967E0,1.1426473E0,5.692131E0,4.4517517E-3,8.377003E0,1.7575745E1,3.9461853E1,3.715291E1,3.0831375E0,2.502636E0,3.8170433E-1,1.0381165E0,2.0317535E1,2.4390602E1,7.677969E1,5.015087E0,5.683243E0,4.3580627E0,3.7522507E-1,3.25325E-1,2.7677582E1,1.4996506E1,3.207315E1,1.1489929E1,1.1402604E1,9.137775E0,1.3712611E0,3.5719147E0,4.0804405E0,4.5941143E0,0E0,5.162935E-1,2.6702595E0,6.3994303E0,0E0,2.0740747E-1,0E0,0E0,0E0,0E0,0E0,0E0,0E0,0E0,0E0,0E0,0E0,0E0,0E0,0E0,0E0,0E0,0E0,0E0,0E0,0E0,0E0,0E0,0E0,0E0,0E0,0E0,0E0,0E0,0E0,0E0,0E0,0E0,0E0,0E0,0E0,0E0,0E0,0E0,0E0,0E0,0E0,0E0,0E0,0E0,0E0,0E0,0E0,0E0,0E0,0E0,0E0,0E0,0E0,0E0,0E0,0E0,0E0,0E0,0E0,0E0],"parents":[2147483647,0,0,1,1,2,2,3,3,4,4,5,5,6,6,7,7,8,8,9,9,10,10,11,11,12,12,13,13,14,14,15,15,16,16,17,17,18,18,19,19,20,20,21,21,22,22,23,23,24,24,25,25,26,26,27,27,28,28,29,29,30,30,31,31,32,32,33,33,34,34,35,35,36,36,37,37,38,38,39,39,40,40,41,41,42,42,43,43,44,44,45,45,46,46,47,47,48,48,49,49,50,50,51,51,52,52,53,53,54,54,55,55,56,56,58,58,59,59,60,60,62,62],"right_children":[2,4,6,8,10,12,14,16,18,20,22,24,26,28,30,32,34,36,38,40,42,44,46,48,50,52,54,56,58,60,62,64,66,68,70,72,74,76,78,80,82,84,86,88,90,92,94,96,98,100,102,104,106,108,110,112,114,-1,116,118,120,-1,122,-1,-1,-1,-1,-1,-1,-1,-1,-1,-1,-1,-1,-1,-1,-1,-1,-1,-1,-1,-1,-1,-1,-1,-1,-1,-1,-1,-1,-1,-1,-1,-1,-1,-1,-1,-1,-1,-1,-1,-1,-1,-1,-1,-1,-1,-1,-1,-1,-1,-1,-1,-1,-1,-1,-1,-1,-1,-1,-1,-1],"split_conditions":[3.839936E-1,-5.4087553E-2,1.0953624E0,1.0719506E0,1.0579034E0,3.651646E-1,1.46527E0,-1.2489884E-1,1.5214585E0,-2.2894149E-3,1.6947064E0,6.626434E-1,1.4569662E0,4.8529184E-1,1.764942E0,-7.5915515E-1,-9.3946405E-2,1.3435283E0,-7.5915515E-1,1.2420397E-1,7.114076E-1,4.593265E-2,-7.5915515E-1,-1.2061262E-2,-1.2489884E-1,8.611432E-1,-1.6312577E0,-2.7787179E-2,-1.4726936E0,5.262161E0,-2.391018E-2,-1.0257535E0,-1.3890488E-1,-8.702294E-1,-2.5728565E-2,-6.753301E-1,7.6258485E-3,-1.3434815E-1,2.0035855E-1,-1.0959892E0,-6.0059106E-1,-5.621984E-1,-3.287348E-1,-2.8383527E-2,1.3622577E0,1.764942E0,1.7778702E0,3.507934E-1,1.012546E-2,1.0513923E0,-1.1085275E0,-7.8910775E-2,-1.0532734E0,-1.0532734E0,5.381597E-1,1.3107517E0,8.611432E-1,4.604529E-3,-6.798731E-1,-5.21309E-1,-1.133962E0,-4.321514E-2,2.3080976E0,-1.5082317E-2,1.851318E-3,-3.3026062E-2,1.7587544E-2,5.7170517E-3,5.760173E-2,1.986461E-2,4.2371053E-2,-3.0596206E-2,-8.7135965E-3,-2.553147E-2,-1.0442878E-2,-1.9562854E-2,-3.403698E-2,-4.2648483E-2,-2.1805106E-2,-2.0995056E-2,-3.7643206E-3,-1.4152095E-3,1.9349318E-2,-1.745821E-2,-3.996433E-2,-1.48650175E-2,-3.7410092E-3,-2.5525391E-2,-3.7247E-2,-1.3308621E-2,-2.486578E-2,-2.4199741E-2,-3.9355546E-2,-4.6781193E-2,-2.4266178E-2,3.205752E-2,5.8614235E-2,1.5152784E-2,-1.2432833E-2,3.812201E-2,6.879523E-2,-1.4497771E-2,7.8281574E-2,2.917835E-2,-1.7280174E-2,-2.475751E-2,3.3073157E-2,3.2548454E-2,-3.146705E-3,-2.3181519E-2,2.3968373E-3,2.7906016E-2,3.0229145E-3,-1.0462337E-2,1.4248728E-2,-2.8354341E-2,-1.2657784E-2,-1.897235E-2,-3.7894156E-2,5.4144587E-2,-1.5100839E-2,-3.311005E-2,-8.659712E-3],"split_indices":[2,5,6,6,6,3,6,1,6,5,6,2,3,3,6,1,5,6,1,2,6,2,1,5,1,2,1,5,1,2,5,6,5,2,2,2,2,3,2,6,1,6,2,5,6,6,1,1,3,2,4,5,4,4,6,6,2,0,1,1,4,0,6,0,0,0,0,0,0,0,0,0,0,0,0,0,0,0,0,0,0,0,0,0,0,0,0,0,0,0,0,0,0,0,0,0,0,0,0,0,0,0,0,0,0,0,0,0,0,0,0,0,0,0,0,0,0,0,0,0,0,0,0],"split_type":[0,0,0,0,0,0,0,0,0,0,0,0,0,0,0,0,0,0,0,0,0,0,0,0,0,0,0,0,0,0,0,0,0,0,0,0,0,0,0,0,0,0,0,0,0,0,0,0,0,0,0,0,0,0,0,0,0,0,0,0,0,0,0,0,0,0,0,0,0,0,0,0,0,0,0,0,0,0,0,0,0,0,0,0,0,0,0,0,0,0,0,0,0,0,0,0,0,0,0,0,0,0,0,0,0,0,0,0,0,0,0,0,0,0,0,0,0,0,0,0,0,0,0],"sum_hessian":[1.1535E4,9.452E3,2.083E3,2.71E3,6.742E3,1.678E3,4.05E2,2.167E3,5.43E2,5.701E3,1.041E3,1.445E3,2.33E2,2.5E2,1.55E2,8.88E2,1.279E3,3.89E2,1.54E2,2.679E3,3.022E3,8.17E2,2.24E2,7.7E2,6.75E2,1.33E2,1E2,2.16E2,3.4E1,1.02E2,5.3E1,4.93E2,3.95E2,3.55E2,9.24E2,2.21E2,1.68E2,4.5E1,1.09E2,2.023E3,6.56E2,2.57E3,4.52E2,4.62E2,3.55E2,8.3E1,1.41E2,4.14E2,3.56E2,4.31E2,2.44E2,7.4E1,5.9E1,9E0,9.1E1,6.8E1,1.48E2,4E0,3E1,8.9E1,1.3E1,4.6E1,7E0,8.8E1,4.05E2,1.7E1,3.78E2,4.2E1,3.13E2,6.69E2,2.55E2,1.7E1,2.04E2,1.29E2,3.9E1,1.4E1,3.1E1,9.8E1,1.1E1,1.88E2,1.835E3,2.05E2,4.51E2,2.107E3,4.63E2,1.55E2,2.97E2,1.96E2,2.66E2,2.15E2,1.4E2,1.3E1,7E1,1.35E2,6E0,2.4E2,1.74E2,2.98E2,5.8E1,3.09E2,1.22E2,3E0,2.41E2,1.6E1,5.8E1,7E0,5.2E1,4E0,5E0,7.5E1,1.6E1,2.8E1,4E1,1.27E2,2.1E1,1.6E1,1.4E1,5.6E1,3.3E1,4E0,9E0,4E0,3E0],"tree_param":{"num_deleted":"0","num_feature":"8","num_nodes":"123","size_leaf_vector":"1"}},{"base_weights":[1.9421198E-3,-2.565416E-1,6.3883823E-1,-4.945624E-1,-6.17614E-2,3.7770036E-1,1.2305546E0,-1.892007E-1,-5.991778E-1,4.9883142E-1,-1.9494545E-1,7.6248986E-1,1.6983147E-1,9.5381594E-1,1.5472751E0,3.162733E-2,-3.4167752E-1,-7.4195105E-1,-4.8909253E-1,1.0050614E0,4.0521494E-1,-4.3746457E-2,-3.0997747E-1,1.0641541E0,6.055233E-1,8.3977886E-2,3.9269108E-1,1.3058776E0,7.4238056E-1,5.2668905E-1,1.5863584E0,1.614581E-1,-4.0724993E-1,-8.271935E-2,-4.315256E-1,-3.287942E-1,-7.5855035E-1,-2.5382915E-1,-5.5710673E-1,4.4951063E-1,1.3731892E0,7.614188E-2,5.953131E-1,-2.1087874E-1,1.02228366E-1,-2.5911987E-1,-5.3167665E-1,1.5257576E-1,1.1917105E0,1.0014925E0,5.2169776E-1,3.1719583E-1,1.9557906E-2,5.764956E-1,2.8540435E-1,1.170864E0,1.5193559E0,8.395592E-1,5.100224E-1,9.9230963E-1,-2.2507791E-1,1.3840673E0,1.741206E0,-8.9980615E-3,1.9985724E-2,-5.2544523E-2,-1.7730512E-2,9.74216E-4,-2.3924144E-2,-1.9227816E-2,-3.8141586E-2,2.3284335E-2,-2.0693813E-2,-3.8129833E-2,1.4785185E-2,-2.2250542E-3,-1.7916111E-2,-1.681585E-2,-3.0116701E-2,-6.3382636E-4,4.1921124E-2,-0E0,7.2278485E-2,1.4380473E-2,-2.1289768E-2,5.4708567E-2,1.6270563E-2,4.991121E-3,-1.7299356E-2,2.492137E-2,2.2407162E-3,3.8817197E-3,-1.4395646E-2,-2.7557066E-2,8.468287E-3,-4.7483545E-2,1.6433075E-2,6.784429E-2,4.328231E-2,4.049393E-2,6.5080106E-2,2.8042287E-2,-7.5645144E-3,2.4898313E-2,1.1898845E-2,5.970649E-3,-6.853554E-3,1.6721712E-2,4.2326566E-2,1.6457161E-2,-0E0,3.575031E-2,6.284875E-2,7.944334E-2,4.109786E-2,4.9576644E-2,3.3523135E-2,2.3099523E-2,6.0043972E-2,-0E0,6.5677546E-2,1.3092349E-2,-4.012323E-2,7.519384E-2,4.714453E-2,4.9037516E-2,8.776516E-2],"categories":[],"categories_nodes":[],"categories_segments":[],"categories_sizes":[],"default_left":[0,0,0,0,0,0,0,0,0,0,0,0,0,0,0,0,0,0,0,0,0,0,0,0,0,0,0,0,0,0,0,0,0,0,0,0,0,0,0,0,0,0,0,0,0,0,0,0,0,0,0,0,0,0,0,0,0,0,0,0,0,0,0,0,0,0,0,0,0,0,0,0,0,0,0,0,0,0,0,0,0,0,0,0,0,0,0,0,0,0,0,0,0,0,0,0,0,0,0,0,0,0,0,0,0,0,0,0,0,0,0,0,0,0,0,0,0,0,0,0,0,0,0,0,0,0,0],"id":10,"left_children":[1,3,5,7,9,11,13,15,17,19,21,23,25,27,29,31,33,35,37,39,41,43,45,47,49,51,53,55,57,59,61,63,65,67,69,71,73,75,77,79,81,83,85,87,89,91,93,95,97,99,101,103,105,107,109,111,113,115,117,119,121,123,125,-1,-1,-1,-1,-1,-1,-1,-1,-1,-1,-1,-1,-1,-1,-1,-1,-1,-1,-1,-1,-1,-1,-1,-1,-1,-1,-1,-1,-1,-1,-1,-1,-1,-1,-1,-1,-1,-1,-1,-1,-1,-1,-1,-1,-1,-1,-1,-1,-1,-1,-1,-1,-1,-1,-1,-1,-1,-1,-1,-1,-1,-1,-1,-1],"loss_changes":[1.8932513E3,3.791527E2,5.123793E2,1.1739935E2,3.3604596E2,1.8414447E2,8.7325195E1,3.1726372E1,4.259497E1,4.039792E1,6.3208405E1,3.7448486E1,2.8581036E1,3.9394592E1,1.7780273E1,2.1978388E1,1.2872536E1,7.8098755E0,2.4595398E1,2.6605316E1,4.5616104E1,3.840907E1,2.3066208E1,3.1660095E1,1.7049881E1,1.6231E1,7.952713E0,3.8029785E0,7.1818695E0,6.950794E0,1.1498901E1,2.4334816E1,2.4683247E0,5.920253E0,6.0186996E0,3.4321656E0,5.1522217E0,7.5994377E0,1.170639E1,9.979457E0,7.96315E0,2.866123E1,6.1841568E1,3.087125E1,1.9031147E1,1.6352348E1,5.371414E0,7.0431666E0,1.1582886E1,4.0251923E0,1.1797142E1,3.1588821E0,1.3308771E1,9.534306E0,3.331358E0,3.967865E0,2.0886993E0,5.3365936E0,2.7299747E0,3.7126036E0,2.5133362E0,9.014465E0,7.17041E-1,0E0,0E0,0E0,0E0,0E0,0E0,0E0,0E0,0E0,0E0,0E0,0E0,0E0,0E0,0E0,0E0,0E0,0E0,0E0,0E0,0E0,0E0,0E0,0E0,0E0,0E0,0E0,0E0,0E0,0E0,0E0,0E0,0E0,0E0,0E0,0E0,0E0,0E0,0E0,0E0,0E0,0E0,0E0,0E0,0E0,0E0,0E0,0E0,0E0,0E0,0E0,0E0,0E0,0E0,0E0,0E0,0E0,0E0,0E0,0E0,0E0,0E0,0E0,0E0],"parents":[2147483647,0,0,1,1,2,2,3,3,4,4,5,5,6,6,7,7,8,8,9,9,10,10,11,11,12,12,13,13,14,14,15,15,16,16,17,17,18,18,19,19,20,20,21,21,22,22,23,23,24,24,25,25,26,26,27,27,28,28,29,29,30,30,31,31,32,32,33,33,34,34,35,35,36,36,37,37,38,38,39,39,40,40,41,41,42,42,43,43,44,44,45,45,46,46,47,47,48,48,49,49,50,50,51,51,52,52,53,53,54,54,55,55,56,56,57,57,58,58,59,59,60,60,61,61,62,62],"right_children":[2,4,6,8,10,12,14,16,18,20,22,24,26,28,30,32,34,36,38,40,42,44,46,48,50,52,54,56,58,60,62,64,66,68,70,72,74,76,78,80,82,84,86,88,90,92,94,96,98,100,102,104,106,108,110,112,114,116,118,120,122,124,126,-1,-1,-1,-1,-1,-1,-1,-1,-1,-1,-1,-1,-1,-1,-1,-1,-1,-1,-1,-1,-1,-1,-1,-1,-1,-1,-1,-1,-1,-1,-1,-1,-1,-1,-1,-1,-1,-1,-1,-1,-1,-1,-1,-1,-1,-1,-1,-1,-1,-1,-1,-1,-1,-1,-1,-1,-1,-1,-1,-1,-1,-1,-1,-1],"split_conditions":[3.4680477E-1,-5.478624E-1,1.2944946E0,-6.573842E-1,-6.8827465E-2,-3.6320027E-2,1.9921901E0,-2.2367232E-2,-9.096246E-1,-1.3709878E0,-2.5421783E-2,-6.8006516E-2,9.376148E-1,-3.6320027E-2,-1.133962E0,7.3599833E-1,-9.761144E-1,-1.0210839E-1,-4.472588E-1,-1.430902E0,-8.782323E-2,-1.716108E-1,9.007627E-1,-8.568142E-1,-1.3060806E0,-1.1313305E0,-1.0071184E-2,-9.145953E-2,8.258698E-1,5.912055E-1,2.5522366E0,-1.0806098E0,7.5596976E-1,6.810769E-1,8.7579834E-1,-1.5658994E0,5.262161E0,-5.166296E-2,-6.661062E-2,-4.7091216E-1,-9.4840413E-1,-1.1313305E0,6.111769E-1,-3.019201E-1,-1.3709878E0,-1.4009448E0,8.611432E-1,-1.2181588E0,6.261555E-1,8.96299E-1,1.2003342E0,-2.2896744E-2,6.2006013E-3,-1.8392406E-1,4.588587E-2,-8.331339E-1,5.964578E-1,-7.050435E-3,1.343453E0,-8.098307E-2,2.2689059E0,6.2006013E-3,-5.4161453E-1,-8.9980615E-3,1.9985724E-2,-5.2544523E-2,-1.7730512E-2,9.74216E-4,-2.3924144E-2,-1.9227816E-2,-3.8141586E-2,2.3284335E-2,-2.0693813E-2,-3.8129833E-2,1.4785185E-2,-2.2250542E-3,-1.7916111E-2,-1.681585E-2,-3.0116701E-2,-6.3382636E-4,4.1921124E-2,-0E0,7.2278485E-2,1.4380473E-2,-2.1289768E-2,5.4708567E-2,1.6270563E-2,4.991121E-3,-1.7299356E-2,2.492137E-2,2.2407162E-3,3.8817197E-3,-1.4395646E-2,-2.7557066E-2,8.468287E-3,-4.7483545E-2,1.6433075E-2,6.784429E-2,4.328231E-2,4.049393E-2,6.5080106E-2,2.8042287E-2,-7.5645144E-3,2.4898313E-2,1.1898845E-2,5.970649E-3,-6.853554E-3,1.6721712E-2,4.2326566E-2,1.6457161E-2,-0E0,3.575031E-2,6.284875E-2,7.944334E-2,4.109786E-2,4.9576644E-2,3.3523135E-2,2.3099523E-2,6.0043972E-2,-0E0,6.5677546E-2,1.3092349E-2,-4.012323E-2,7.519384E-2,4.714453E-2,4.9037516E-2,8.776516E-2],"split_indices":[0,0,0,2,5,5,0,5,0,7,5,5,0,5,4,7,2,5,2,7,7,0,7,4,7,7,5,3,7,7,0,0,7,7,7,0,2,5,5,4,2,7,7,2,7,7,2,4,7,0,7,5,5,3,5,4,4,5,2,5,0,5,3,0,0,0,0,0,0,0,0,0,0,0,0,0,0,0,0,0,0,0,0,0,0,0,0,0,0,0,0,0,0,0,0,0,0,0,0,0,0,0,0,0,0,0,0,0,0,0,0,0,0,0,0,0,0,0,0,0,0,0,0,0,0,0,0],"split_type":[0,0,0,0,0,0,0,0,0,0,0,0,0,0,0,0,0,0,0,0,0,0,0,0,0,0,0,0,0,0,0,0,0,0,0,0,0,0,0,0,0,0,0,0,0,0,0,0,0,0,0,0,0,0,0,0,0,0,0,0,0,0,0,0,0,0,0,0,0,0,0,0,0,0,0,0,0,0,0,0,0,0,0,0,0,0,0,0,0,0,0,0,0,0,0,0,0,0,0,0,0,0,0,0,0,0,0,0,0,0,0,0,0,0,0,0,0,0,0,0,0,0,0,0,0,0,0],"sum_hessian":[1.1498E4,8.179E3,3.319E3,3.68E3,4.499E3,2.304E3,1.015E3,9.4E2,2.74E3,8.63E2,3.636E3,8.07E2,1.497E3,5.44E2,4.71E2,3.84E2,5.56E2,1.19E3,1.55E3,1.33E2,7.3E2,1.572E3,2.064E3,2.74E2,5.33E2,1.082E3,4.15E2,2.02E2,3.42E2,1.8E1,4.53E2,2.97E2,8.7E1,1.44E2,4.12E2,4.7E1,1.143E3,3.49E2,1.201E3,5.4E1,7.9E1,2.68E2,4.62E2,7.33E2,8.39E2,1.681E3,3.83E2,3.4E1,2.4E2,9.1E1,4.42E2,2.33E2,8.49E2,1.51E2,2.64E2,1.28E2,7.4E1,2.39E2,1.03E2,1.1E1,7E0,2.01E2,2.52E2,1.22E2,1.75E2,5E0,8.2E1,1.15E2,2.9E1,3.63E2,4.9E1,4E0,4.3E1,1.139E3,4E0,1.17E2,2.32E2,2.06E2,9.95E2,2.5E1,2.9E1,4E0,7.5E1,1.89E2,7.9E1,1.61E2,3.01E2,2.22E2,5.11E2,1.05E2,7.34E2,1.32E2,1.549E3,3.73E2,1E1,4E0,3E1,1.57E2,8.3E1,5.8E1,3.3E1,4.18E2,2.4E1,6.9E1,1.64E2,5.19E2,3.3E2,8.1E1,7E1,2.29E2,3.5E1,2.2E1,1.06E2,6.6E1,8E0,1.23E2,1.16E2,9.8E1,5E0,3E0,8E0,4E0,3E0,1.56E2,4.5E1,6E0,2.46E2],"tree_param":{"num_deleted":"0","num_feature":"8","num_nodes":"127","size_leaf_vector":"1"}},{"base_weights":[1.149505E-3,-1.6354315E-1,9.40128E-1,-4.130068E-1,7.466871E-2,7.33247E-1,1.4695766E0,-2.5409085E-1,-5.432738E-1,1.4344375E-1,-3.0076596E-1,1.1457957E0,6.5429956E-1,4.9695078E-1,1.5039251E0,-4.573011E-1,-6.192204E-2,-6.834237E-1,-4.0156066E-1,7.8755903E-1,7.521534E-2,3.0923462E-2,-4.042546E-1,1.5985353E0,9.151651E-1,7.0316094E-1,-4.20417E-2,1.4342082E-1,6.837223E-2,1.367705E0,1.6779484E0,-1.8788126E-1,-5.9568834E-1,8.1448466E-1,-1.0764758E-1,-5.6999564E-1,-7.3816305E-1,-2.7476877E-1,-4.9510038E-1,8.966076E-1,2.1234584E-1,1.6099574E-1,-2.3459771E-1,2.6109138E-1,-6.111975E-1,-5.1057065E-1,-2.8796238E-1,6.501537E-2,9.226462E-2,1.1965982E0,5.8188075E-1,8.0412996E-1,4.1873682E-1,-1.4476462E-1,2.748028E-1,-3.237238E-1,4.1845046E-2,1.4940531E0,1.0183415E0,8.447518E-2,3.336296E-2,-2.076758E-2,-2.6070764E-3,-3.3872213E-2,-2.1582346E-2,-7.821852E-3,4.8070993E-2,1.2677653E-3,-1.2262427E-2,-1.6895017E-3,-3.0761931E-2,3.9317977E-2,-3.7217673E-2,9.398009E-3,-1.5456867E-2,-1.8591471E-2,-2.6979873E-2,3.7661538E-2,8.6533874E-2,5.7167944E-2,-1.7850932E-3,1.4360882E-2,-3.8410649E-3,-3.9258457E-4,-2.6884323E-2,4.8280347E-2,8.286807E-3,-2.1550363E-2,-3.30758E-2,-2.4204578E-2,-3.5993617E-2,-2.5227373E-2,-1.0865322E-2,6.631772E-2,2.1988386E-2,3.819688E-2,5.740253E-3,5.278895E-2,3.130359E-2,8.435477E-3,3.267347E-2,-3.2811426E-3,-1.8776877E-2,3.9838958E-3,4.320196E-2,6.6212863E-3,-4.7600858E-2,9.120359E-2,6.690075E-2,4.4571664E-2,7.2570935E-2],"categories":[],"categories_nodes":[],"categories_segments":[],"categories_sizes":[],"default_left":[0,0,0,0,0,0,0,0,0,0,0,0,0,0,0,0,0,0,0,0,0,0,0,0,0,0,0,0,0,0,0,0,0,0,0,0,0,0,0,0,0,0,0,0,0,0,0,0,0,0,0,0,0,0,0,0,0,0,0,0,0,0,0,0,0,0,0,0,0,0,0,0,0,0,0,0,0,0,0,0,0,0,0,0,0,0,0,0,0,0,0,0,0,0,0,0,0,0,0,0,0,0,0,0,0,0,0,0,0,0,0],"id":11,"left_children":[1,3,5,7,9,11,13,15,17,19,21,23,25,27,29,31,33,35,37,39,41,43,45,47,49,51,53,55,-1,57,59,61,63,65,67,69,71,73,75,77,79,81,83,85,87,89,91,-1,-1,93,95,97,99,101,103,105,-1,107,109,-1,-1,-1,-1,-1,-1,-1,-1,-1,-1,-1,-1,-1,-1,-1,-1,-1,-1,-1,-1,-1,-1,-1,-1,-1,-1,-1,-1,-1,-1,-1,-1,-1,-1,-1,-1,-1,-1,-1,-1,-1,-1,-1,-1,-1,-1,-1,-1,-1,-1,-1,-1],"loss_changes":[1.7783152E3,5.8142145E2,1.8666052E2,9.871472E1,1.292592E2,3.9326416E1,1.5121948E1,8.4073975E1,5.175244E1,1.8579407E2,2.665255E1,1.885556E1,3.5480835E1,5.192215E0,8.39978E0,3.884633E1,4.4459248E1,7.631897E0,1.5299942E1,2.5102814E1,1.0173633E2,2.746676E1,7.080078E0,2.069336E0,1.1600922E1,2.7454865E1,2.272534E0,4.8576193E0,0E0,9.968933E0,9.610596E-1,1.0954597E1,8.863937E0,8.077343E0,1.9336105E1,1.0442947E1,8.933197E0,8.944283E0,3.827591E0,3.910736E1,1.5393338E1,9.003623E1,5.6982296E1,8.930388E0,4.9907684E-2,1.2325516E0,4.179533E0,0E0,0E0,6.2125397E0,5.1815834E0,3.125351E1,1.4890751E1,8.9922035E-1,1.791353E0,2.7873917E0,0E0,7.1817627E0,2.5389862E0,0E0,0E0,0E0,0E0,0E0,0E0,0E0,0E0,0E0,0E0,0E0,0E0,0E0,0E0,0E0,0E0,0E0,0E0,0E0,0E0,0E0,0E0,0E0,0E0,0E0,0E0,0E0,0E0,0E0,0E0,0E0,0E0,0E0,0E0,0E0,0E0,0E0,0E0,0E0,0E0,0E0,0E0,0E0,0E0,0E0,0E0,0E0,0E0,0E0,0E0,0E0,0E0],"parents":[2147483647,0,0,1,1,2,2,3,3,4,4,5,5,6,6,7,7,8,8,9,9,10,10,11,11,12,12,13,13,14,14,15,15,16,16,17,17,18,18,19,19,20,20,21,21,22,22,23,23,24,24,25,25,26,26,27,27,29,29,30,30,31,31,32,32,33,33,34,34,35,35,36,36,37,37,38,38,39,39,40,40,41,41,42,42,43,43,44,44,45,45,46,46,49,49,50,50,51,51,52,52,53,53,54,54,55,55,57,57,58,58],"right_children":[2,4,6,8,10,12,14,16,18,20,22,24,26,28,30,32,34,36,38,40,42,44,46,48,50,52,54,56,-1,58,60,62,64,66,68,70,72,74,76,78,80,82,84,86,88,90,92,-1,-1,94,96,98,100,102,104,106,-1,108,110,-1,-1,-1,-1,-1,-1,-1,-1,-1,-1,-1,-1,-1,-1,-1,-1,-1,-1,-1,-1,-1,-1,-1,-1,-1,-1,-1,-1,-1,-1,-1,-1,-1,-1,-1,-1,-1,-1,-1,-1,-1,-1,-1,-1,-1,-1,-1,-1,-1,-1,-1,-1],"split_conditions":[8.96299E-1,-3.638577E-1,1.9921901E0,-4.1977257E-1,1.0766329E0,-1.2511592E0,-1.133962E0,-8.803308E-1,-7.155403E-1,-1.3160663E0,-1.4009448E0,9.174321E-1,1.0719506E0,1.489973E0,2.7882664E0,-7.9780924E-1,-1.3909591E0,-1.6419652E-1,-1.4813598E-1,1.0204444E0,9.007627E-1,1.4324934E0,1.0043269E-1,3.5829845E-1,-1.4009448E0,8.508341E-1,1.3767587E0,7.4418426E-1,6.837223E-2,7.5596976E-1,2.1488364E0,-1.5406688E-1,-1.0099479E0,-2.4610999E-1,6.6609836E-1,6.0119116E-1,-4.3741217E-1,-1.4009448E0,-4.7791564E-1,1.001715E0,-1.4408877E0,-5.20057E-1,-9.2742366E-1,1.1000447E0,-2.5870463E-1,1.764942E0,-2.3083873E-1,6.501537E-2,9.226462E-2,1.1983746E0,1.0719506E0,-6.933049E-1,1.2652534E0,9.326437E-1,9.326437E-1,2.2689059E0,4.1845046E-2,-7.026697E-1,-4.824067E-2,8.447518E-2,3.336296E-2,-2.076758E-2,-2.6070764E-3,-3.3872213E-2,-2.1582346E-2,-7.821852E-3,4.8070993E-2,1.2677653E-3,-1.2262427E-2,-1.6895017E-3,-3.0761931E-2,3.9317977E-2,-3.7217673E-2,9.398009E-3,-1.5456867E-2,-1.8591471E-2,-2.6979873E-2,3.7661538E-2,8.6533874E-2,5.7167944E-2,-1.7850932E-3,1.4360882E-2,-3.8410649E-3,-3.9258457E-4,-2.6884323E-2,4.8280347E-2,8.286807E-3,-2.1550363E-2,-3.30758E-2,-2.4204578E-2,-3.5993617E-2,-2.5227373E-2,-1.0865322E-2,6.631772E-2,2.1988386E-2,3.819688E-2,5.740253E-3,5.278895E-2,3.130359E-2,8.435477E-3,3.267347E-2,-3.2811426E-3,-1.8776877E-2,3.9838958E-3,4.320196E-2,6.6212863E-3,-4.7600858E-2,9.120359E-2,6.690075E-2,4.4571664E-2,7.2570935E-2],"split_indices":[0,0,0,2,6,7,4,0,0,7,7,6,6,2,0,2,7,6,2,6,7,6,0,2,7,7,0,6,0,7,4,3,0,3,7,7,3,7,6,6,7,6,6,6,0,6,3,0,0,6,6,6,0,2,2,0,0,6,3,0,0,0,0,0,0,0,0,0,0,0,0,0,0,0,0,0,0,0,0,0,0,0,0,0,0,0,0,0,0,0,0,0,0,0,0,0,0,0,0,0,0,0,0,0,0,0,0,0,0,0,0],"split_type":[0,0,0,0,0,0,0,0,0,0,0,0,0,0,0,0,0,0,0,0,0,0,0,0,0,0,0,0,0,0,0,0,0,0,0,0,0,0,0,0,0,0,0,0,0,0,0,0,0,0,0,0,0,0,0,0,0,0,0,0,0,0,0,0,0,0,0,0,0,0,0,0,0,0,0,0,0,0,0,0,0,0,0,0,0,0,0,0,0,0,0,0,0,0,0,0,0,0,0,0,0,0,0,0,0,0,0,0,0,0,0],"sum_hessian":[1.1497E4,9.782E3,1.715E3,4.778E3,5.004E3,1.235E3,4.8E2,2.154E3,2.624E3,4.23E3,7.74E2,1.96E2,1.039E3,1.7E1,4.63E2,1.046E3,1.108E3,1.317E3,1.307E3,4.04E2,3.826E3,1.84E2,5.9E2,6.4E1,1.32E2,9.71E2,6.8E1,1.3E1,4E0,2.65E2,1.98E2,3.56E2,6.9E2,5.4E1,1.054E3,4.33E2,8.84E2,5.57E2,7.5E2,3.39E2,6.5E1,2.997E3,8.29E2,1.36E2,4.8E1,3.06E2,2.84E2,3.2E1,3.2E1,7E1,6.2E1,7.15E2,2.56E2,5.2E1,1.6E1,8E0,5E0,1.92E2,7.3E1,1.95E2,3E0,1.32E2,2.24E2,4.58E2,2.32E2,7E0,4.7E1,5.36E2,5.18E2,3.4E1,3.99E2,3E0,8.81E2,3.8E1,5.19E2,2.02E2,5.48E2,2.91E2,4.8E1,1.3E1,5.2E1,1.958E3,1.039E3,4.75E2,3.54E2,1.5E1,1.21E2,1.3E1,3.5E1,2.75E2,3.1E1,6.8E1,2.16E2,5.9E1,1.1E1,4.4E1,1.8E1,2.94E2,4.21E2,1.25E2,1.31E2,4E1,1.2E1,1.3E1,3E0,5E0,3E0,5.8E1,1.34E2,5.9E1,1.4E1],"tree_param":{"num_deleted":"0","num_feature":"8","num_nodes":"111","size_leaf_vector":"1"}},{"base_weights":[-4.84594E-3,-9.6629344E-2,4.946294E-1,1.8743134E-1,-2.61419E-1,6.589531E-1,-1.896922E-1,3.5521638E-1,-4.3566498E-1,-3.2548574E-1,-4.909694E-2,7.763619E-1,-1.7914993E-1,-5.576757E-2,-5.513413E-1,4.8650607E-1,-1.8922934E-1,-3.2017776E-1,-6.87109E-1,-2.796283E-1,-5.7690215E-1,2.044778E-2,-5.207725E-1,1.1222073E0,6.397118E-1,5.6902014E-2,-6.162758E-1,2.2631863E-1,-1.8819785E-1,-6.67086E-1,-2.6546225E-1,1.1679808E0,4.0954205E-1,2.4839345E-2,-6.656676E-1,1.269604E-1,-4.4614816E-1,-7.290096E-1,-4.5097727E-1,-1.3979673E-1,-4.3910658E-1,-4.5678633E-1,-6.998089E-1,3.6596215E-1,-8.848332E-2,-3.4731618E-1,-7.195762E-1,1.3893046E0,8.360249E-1,9.082622E-1,-2.2261795E-1,1.8826942E-1,-4.5794588E-2,-3.850121E-1,-7.874292E-1,3.9621672E-1,-5.5230737E-1,4.7493532E-2,-2.1415178E-1,-4.1586593E-1,-3.864292E-2,-6.487377E-2,-3.6235756E-1,6.3817897E-3,6.274143E-2,3.3588547E-2,2.746004E-3,1.9058285E-2,-1.7316451E-2,-1.888387E-2,-3.7356842E-2,2.5864912E-2,-1.9988006E-3,-2.5811652E-2,-1.4256127E-2,-3.0608345E-2,-3.8919743E-2,-1.3312413E-2,-3.2307368E-2,2.109697E-3,-1.658333E-2,-7.6516713E-3,-3.6630686E-2,-1.9405892E-2,-4.6207916E-2,-2.8784007E-2,-3.946621E-2,3.2349095E-2,3.9044514E-3,4.5849527E-3,-3.0250205E-2,-1.2998963E-2,-2.9270215E-2,-2.618497E-2,-4.0493745E-2,8.0792926E-2,5.223914E-2,7.98563E-2,3.2091893E-2,6.2349148E-2,3.0897548E-2,1.0151389E-2,-3.593465E-2,2.334759E-2,-7.0972E-4,4.874041E-3,-2.241399E-2,-4.2078942E-2,-1.8438814E-2,2.6203537E-2,-1.5242574E-2,-3.3907052E-2,-5.8647426E-4,-6.364971E-3,-2.20153E-2,-9.569976E-3,-2.6165912E-2,7.6726335E-3,-1.4452728E-2,-2.0729491E-2,-1.8919547E-3],"categories":[],"categories_nodes":[],"categories_segments":[],"categories_sizes":[],"default_left":[0,0,0,0,0,0,0,0,0,0,0,0,0,0,0,0,0,0,0,0,0,0,0,0,0,0,0,0,0,0,0,0,0,0,0,0,0,0,0,0,0,0,0,0,0,0,0,0,0,0,0,0,0,0,0,0,0,0,0,0,0,0,0,0,0,0,0,0,0,0,0,0,0,0,0,0,0,0,0,0,0,0,0,0,0,0,0,0,0,0,0,0,0,0,0,0,0,0,0,0,0,0,0,0,0,0,0,0,0,0,0,0,0,0,0,0,0,0,0,0,0],"id":12,"left_children":[1,3,5,7,9,11,13,15,17,19,21,23,25,27,29,31,33,35,37,39,41,43,45,47,49,51,53,55,57,59,61,63,65,67,69,71,73,75,77,79,81,83,85,87,89,91,93,95,97,99,101,103,-1,105,107,109,111,-1,113,115,-1,117,119,-1,-1,-1,-1,-1,-1,-1,-1,-1,-1,-1,-1,-1,-1,-1,-1,-1,-1,-1,-1,-1,-1,-1,-1,-1,-1,-1,-1,-1,-1,-1,-1,-1,-1,-1,-1,-1,-1,-1,-1,-1,-1,-1,-1,-1,-1,-1,-1,-1,-1,-1,-1,-1,-1,-1,-1,-1,-1],"loss_changes":[5.312888E2,4.583756E2,2.0246988E2,3.7599048E2,8.424301E1,1.4297827E2,1.6811913E1,2.0262491E2,2.1835709E1,5.463257E1,4.723074E1,5.926764E1,1.8561012E1,9.60211E0,2.840025E0,1.191051E2,5.6277397E1,2.9659794E1,1.917923E0,8.9705505E1,1.0386002E1,4.725725E1,6.0228844E0,2.6057404E1,2.1216556E2,1.50515E1,2.073227E0,1.1050764E1,5.298882E0,1.3134823E0,4.9741554E-1,2.0572815E1,1.9080322E2,5.052544E1,3.6174011E0,7.627156E0,4.3997116E0,5.442581E-1,1.1428146E0,7.504794E1,1.5773654E2,1.1513145E1,3.4092102E0,2.4227283E1,8.889362E1,1.863451E0,9.4594574E-1,1.240744E1,2.4763107E1,6.768042E1,4.622866E1,5.9199047E0,0E0,9.640384E-1,3.6205482E-1,6.276823E0,9.434018E-1,0E0,3.2656174E0,3.5899282E-1,0E0,5.963069E-1,2.6112604E-1,0E0,0E0,0E0,0E0,0E0,0E0,0E0,0E0,0E0,0E0,0E0,0E0,0E0,0E0,0E0,0E0,0E0,0E0,0E0,0E0,0E0,0E0,0E0,0E0,0E0,0E0,0E0,0E0,0E0,0E0,0E0,0E0,0E0,0E0,0E0,0E0,0E0,0E0,0E0,0E0,0E0,0E0,0E0,0E0,0E0,0E0,0E0,0E0,0E0,0E0,0E0,0E0,0E0,0E0,0E0,0E0,0E0,0E0],"parents":[2147483647,0,0,1,1,2,2,3,3,4,4,5,5,6,6,7,7,8,8,9,9,10,10,11,11,12,12,13,13,14,14,15,15,16,16,17,17,18,18,19,19,20,20,21,21,22,22,23,23,24,24,25,25,26,26,27,27,28,28,29,29,30,30,31,31,32,32,33,33,34,34,35,35,36,36,37,37,38,38,39,39,40,40,41,41,42,42,43,43,44,44,45,45,46,46,47,47,48,48,49,49,50,50,51,51,53,53,54,54,55,55,56,56,58,58,59,59,61,61,62,62],"right_children":[2,4,6,8,10,12,14,16,18,20,22,24,26,28,30,32,34,36,38,40,42,44,46,48,50,52,54,56,58,60,62,64,66,68,70,72,74,76,78,80,82,84,86,88,90,92,94,96,98,100,102,104,-1,106,108,110,112,-1,114,116,-1,118,120,-1,-1,-1,-1,-1,-1,-1,-1,-1,-1,-1,-1,-1,-1,-1,-1,-1,-1,-1,-1,-1,-1,-1,-1,-1,-1,-1,-1,-1,-1,-1,-1,-1,-1,-1,-1,-1,-1,-1,-1,-1,-1,-1,-1,-1,-1,-1,-1,-1,-1,-1,-1,-1,-1,-1,-1,-1,-1],"split_conditions":[4.3772548E-1,-4.234944E-2,1.0953624E0,1.0766329E0,1.4017886E-1,1.2103199E0,1.5916941E0,9.1074836E-1,1.5214585E0,9.007627E-1,1.3107517E0,-1.116352E0,-8.6655277E-1,-1.2761234E0,-3.5743755E-1,-1.3759806E0,-9.1337657E-1,-1.3909591E0,-7.968091E-1,-5.20057E-1,-9.227413E-1,-9.366091E-1,1.5916941E0,9.4552636E-1,-5.20057E-1,1.7195914E0,-7.4481106E-1,1.4324934E0,-1.2181588E0,-9.970013E-1,-5.843352E-2,-5.21309E-1,-5.20057E-1,1.2103199E0,1.0605341E0,1.1562333E0,1.2834248E-2,-7.5915515E-1,-6.969519E-1,2.554671E-2,-9.9153054E-1,1.5648128E0,1.0854985E0,9.267969E-1,-4.4513902E-1,2.7200761E-3,-8.384372E-1,-1.2062234E0,-1.4209163E0,7.759412E-1,-1.9267324E-1,-1.0762833E0,-4.5794588E-2,-1.0210839E-1,5.262161E0,6.6792154E-1,1.489973E0,4.7493532E-2,-6.420305E-1,1.6947064E0,-3.864292E-2,-4.42027E-1,-2.330919E-2,6.3817897E-3,6.274143E-2,3.3588547E-2,2.746004E-3,1.9058285E-2,-1.7316451E-2,-1.888387E-2,-3.7356842E-2,2.5864912E-2,-1.9988006E-3,-2.5811652E-2,-1.4256127E-2,-3.0608345E-2,-3.8919743E-2,-1.3312413E-2,-3.2307368E-2,2.109697E-3,-1.658333E-2,-7.6516713E-3,-3.6630686E-2,-1.9405892E-2,-4.6207916E-2,-2.8784007E-2,-3.946621E-2,3.2349095E-2,3.9044514E-3,4.5849527E-3,-3.0250205E-2,-1.2998963E-2,-2.9270215E-2,-2.618497E-2,-4.0493745E-2,8.0792926E-2,5.223914E-2,7.98563E-2,3.2091893E-2,6.2349148E-2,3.0897548E-2,1.0151389E-2,-3.593465E-2,2.334759E-2,-7.0972E-4,4.874041E-3,-2.241399E-2,-4.2078942E-2,-1.8438814E-2,2.6203537E-2,-1.5242574E-2,-3.3907052E-2,-5.8647426E-4,-6.364971E-3,-2.20153E-2,-9.569976E-3,-2.6165912E-2,7.6726335E-3,-1.4452728E-2,-2.0729491E-2,-1.8919547E-3],"split_indices":[2,5,6,6,2,7,6,7,6,7,6,7,6,7,7,7,6,7,7,6,6,7,6,6,6,7,6,6,4,1,5,1,6,7,7,6,2,1,7,5,7,7,7,6,6,5,1,7,7,7,7,1,0,5,2,1,2,0,7,6,0,1,5,0,0,0,0,0,0,0,0,0,0,0,0,0,0,0,0,0,0,0,0,0,0,0,0,0,0,0,0,0,0,0,0,0,0,0,0,0,0,0,0,0,0,0,0,0,0,0,0,0,0,0,0,0,0,0,0,0,0],"split_type":[0,0,0,0,0,0,0,0,0,0,0,0,0,0,0,0,0,0,0,0,0,0,0,0,0,0,0,0,0,0,0,0,0,0,0,0,0,0,0,0,0,0,0,0,0,0,0,0,0,0,0,0,0,0,0,0,0,0,0,0,0,0,0,0,0,0,0,0,0,0,0,0,0,0,0,0,0,0,0,0,0,0,0,0,0,0,0,0,0,0,0,0,0,0,0,0,0,0,0,0,0,0,0,0,0,0,0,0,0,0,0,0,0,0,0,0,0,0,0,0,0],"sum_hessian":[1.1588E4,9.79E3,1.798E3,3.594E3,6.196E3,1.45E3,3.48E2,2.832E3,7.62E2,4.759E3,1.437E3,1.272E3,1.78E2,2.55E2,9.3E1,2.282E3,5.5E2,5.24E2,2.38E2,4.027E3,7.32E2,1.253E3,1.84E2,3.58E2,9.14E2,1.16E2,6.2E1,8.1E1,1.74E2,6.5E1,2.8E1,2.3E2,2.052E3,3.8E2,1.7E2,1.15E2,4.09E2,2E2,3.8E1,2.147E3,1.88E3,3.73E2,3.59E2,3E2,9.53E2,1E2,8.4E1,1.83E2,1.75E2,6.97E2,2.17E2,1.03E2,1.3E1,2.8E1,3.4E1,6.7E1,1.4E1,3E0,1.71E2,2.1E1,4.4E1,1E1,1.8E1,1.8E1,2.12E2,1.179E3,8.73E2,1.94E2,1.86E2,3.9E1,1.31E2,3.4E1,8.1E1,2.83E2,1.26E2,6.4E1,1.36E2,2.1E1,1.7E1,1.102E3,1.045E3,9.53E2,9.27E2,3.27E2,4.6E1,1.54E2,2.05E2,1.51E2,1.49E2,7.07E2,2.46E2,7.5E1,2.5E1,2.9E1,5.5E1,1.08E2,7.5E1,3.4E1,1.41E2,3.2E2,3.77E2,1.17E2,1E2,4.3E1,6E1,3E0,2.5E1,2.9E1,5E0,5.7E1,1E1,1.1E1,3E0,1.25E2,4.6E1,8E0,1.3E1,5E0,5E0,1.5E1,3E0],"tree_param":{"num_deleted":"0","num_feature":"8","num_nodes":"121","size_leaf_vector":"1"}},{"base_weights":[-1.4780626E-3,-1.0684549E-1,4.1120648E-1,2.2366233E-1,-2.4223986E-1,5.6243515E-1,-2.2364064E-1,3.764344E-1,-3.820166E-1,-1.9291332E-1,-5.243544E-1,6.309701E-1,-1.947894E-1,-7.4080825E-2,-4.8544833E-1,9.4685756E-2,5.729477E-1,-2.7183485E-1,-6.3592494E-1,-2.843892E-2,-3.4063968E-1,-4.5759597E-1,-7.3603845E-1,3.906593E-1,9.5983726E-1,-2.5909403E-1,5.3963935E-1,-2.0531392E-2,-3.8868266E-1,-3.4479937E-1,-3.5596646E-2,-4.794463E-2,2.7490243E-1,8.4802604E-1,4.0579265E-1,-3.2808894E-1,-1.1639338E-1,-6.56776E-1,-1.5524196E-2,-9.6248575E-2,2.0129803E-1,-3.7673232E-1,-1.3304853E-1,-6.2586945E-1,-3.658909E-1,-5.031988E-1,-7.539762E-1,6.273756E-1,5.1966533E-2,6.4397246E-1,1.1614875E0,-3.0431712E-1,3.186019E-1,1.2616351E0,-2.4814745E-2,5.5610284E-2,-2.9977915E-1,1.8807398E-2,-4.5989788E-1,-2.0643418E-1,-5.417567E-1,-3.9875694E-3,2.7397007E-2,-3.6524948E-2,1.6567027E-2,3.257338E-2,5.8995802E-2,8.667772E-3,2.6691357E-2,-1.178348E-2,-2.2175657E-2,-1.739954E-3,-1.5997564E-2,-2.9765332E-2,-3.7486795E-2,-1.0619351E-3,-1.0733586E-2,-7.3163807E-3,1.5249704E-2,-1.5623273E-2,-3.409506E-2,-1.5062036E-2,-2.7171327E-3,-1.6362831E-3,-3.1965263E-2,-1.3209768E-2,-2.2343751E-2,-1.0107139E-2,-2.7978946E-2,-3.8094234E-2,-1.9905845E-2,1.52673125E-2,3.9696414E-2,6.315837E-3,-2.3028223E-2,1.6637297E-2,4.4532623E-2,4.927317E-2,6.690877E-2,-4.2461555E-2,-1.1976698E-2,5.8262296E-2,-2.8223787E-2,7.825881E-2,2.7089998E-2,-5.2941283E-3,8.507585E-3,9.69871E-3,-1.7808082E-2,1.9559877E-2,-1.666423E-2,-2.6121294E-2,-1.0157766E-2,9.68844E-3,-1.633866E-2,-3.0932967E-2,-1.6830929E-2],"categories":[],"categories_nodes":[],"categories_segments":[],"categories_sizes":[],"default_left":[0,0,0,0,0,0,0,0,0,0,0,0,0,0,0,0,0,0,0,0,0,0,0,0,0,0,0,0,0,0,0,0,0,0,0,0,0,0,0,0,0,0,0,0,0,0,0,0,0,0,0,0,0,0,0,0,0,0,0,0,0,0,0,0,0,0,0,0,0,0,0,0,0,0,0,0,0,0,0,0,0,0,0,0,0,0,0,0,0,0,0,0,0,0,0,0,0,0,0,0,0,0,0,0,0,0,0,0,0,0,0,0,0,0,0,0,0],"id":13,"left_children":[1,3,5,7,9,11,13,15,17,19,21,23,25,27,29,31,33,35,37,39,41,43,45,47,49,51,53,55,57,59,-1,61,63,65,67,69,71,73,-1,75,77,79,81,83,85,87,89,91,93,95,97,99,101,103,-1,105,107,109,111,113,115,-1,-1,-1,-1,-1,-1,-1,-1,-1,-1,-1,-1,-1,-1,-1,-1,-1,-1,-1,-1,-1,-1,-1,-1,-1,-1,-1,-1,-1,-1,-1,-1,-1,-1,-1,-1,-1,-1,-1,-1,-1,-1,-1,-1,-1,-1,-1,-1,-1,-1,-1,-1,-1,-1,-1,-1],"loss_changes":[5.0498752E2,4.140729E2,2.2692838E2,2.489586E2,9.116998E1,9.918475E1,1.7724024E1,1.18808014E2,1.4899384E1,1.3575049E2,1.3336365E1,1.3779315E2,7.6208854E0,4.8535023E0,4.9048996E0,2.2758545E1,5.7696136E1,3.2401657E0,8.054428E-1,4.1229275E1,2.1956879E1,1.1168304E1,4.6385193E-1,8.111583E1,4.607776E1,3.9359303E0,1.04258995E1,5.356686E0,1.2715774E0,2.6475554E0,0E0,9.359742E0,2.238861E1,3.016568E1,2.3317383E1,2.793106E0,1.664135E0,2.8772736E-1,0E0,1.8128506E1,2.179708E1,4.8855377E1,5.7461905E0,1.99189E0,3.805153E0,1.5018463E-1,1.8013E-1,3.1614029E1,1.5953389E1,2.1845573E1,1.2413452E1,4.5239744E0,8.942007E0,6.8928623E-1,0E0,3.6684732E0,1.588613E0,1.0539806E0,3.992386E-1,3.1107001E0,3.5879803E-1,0E0,0E0,0E0,0E0,0E0,0E0,0E0,0E0,0E0,0E0,0E0,0E0,0E0,0E0,0E0,0E0,0E0,0E0,0E0,0E0,0E0,0E0,0E0,0E0,0E0,0E0,0E0,0E0,0E0,0E0,0E0,0E0,0E0,0E0,0E0,0E0,0E0,0E0,0E0,0E0,0E0,0E0,0E0,0E0,0E0,0E0,0E0,0E0,0E0,0E0,0E0,0E0,0E0,0E0,0E0,0E0],"parents":[2147483647,0,0,1,1,2,2,3,3,4,4,5,5,6,6,7,7,8,8,9,9,10,10,11,11,12,12,13,13,14,14,15,15,16,16,17,17,18,18,19,19,20,20,21,21,22,22,23,23,24,24,25,25,26,26,27,27,28,28,29,29,31,31,32,32,33,33,34,34,35,35,36,36,37,37,39,39,40,40,41,41,42,42,43,43,44,44,45,45,46,46,47,47,48,48,49,49,50,50,51,51,52,52,53,53,55,55,56,56,57,57,58,58,59,59,60,60],"right_children":[2,4,6,8,10,12,14,16,18,20,22,24,26,28,30,32,34,36,38,40,42,44,46,48,50,52,54,56,58,60,-1,62,64,66,68,70,72,74,-1,76,78,80,82,84,86,88,90,92,94,96,98,100,102,104,-1,106,108,110,112,114,116,-1,-1,-1,-1,-1,-1,-1,-1,-1,-1,-1,-1,-1,-1,-1,-1,-1,-1,-1,-1,-1,-1,-1,-1,-1,-1,-1,-1,-1,-1,-1,-1,-1,-1,-1,-1,-1,-1,-1,-1,-1,-1,-1,-1,-1,-1,-1,-1,-1,-1,-1,-1,-1,-1,-1,-1],"split_conditions":[3.3569413E-1,-5.321348E-2,1.0953624E0,1.0719506E0,1.0625857E0,8.4396887E-1,1.5214585E0,-1.2489884E-1,1.5214585E0,-1.2760006E-3,1.6947064E0,6.626434E-1,7.472036E-1,4.8529184E-1,1.764942E0,-7.5915515E-1,-8.680425E-2,-5.4159835E-3,5.631299E-1,1.2420397E-1,7.114076E-1,-1.5217024E-1,-1.0762833E0,-8.840974E-3,-8.384372E-1,4.588587E-2,-2.496456E-2,5.6014303E-3,-8.680425E-2,-4.42027E-1,-3.5596646E-2,2.1450397E-1,-1.3890488E-1,-3.8991207E-1,-3.287348E-1,1.3435283E0,-2.2754213E-3,2.0927083E0,-1.5524196E-2,-5.621984E-1,-8.384372E-1,-5.20057E-1,-3.287348E-1,-1.6312577E0,-2.6308015E-2,1.764942E0,1.7778702E0,-4.42027E-1,5.6215093E-2,8.955056E-1,1.1294728E-1,-1.1646588E0,-9.1771924E-1,-6.42814E-1,-2.4814745E-2,4.676567E-1,-2.5094476E-1,-9.1771924E-1,-6.798731E-1,-5.843352E-2,1.0513923E0,-3.9875694E-3,2.7397007E-2,-3.6524948E-2,1.6567027E-2,3.257338E-2,5.8995802E-2,8.667772E-3,2.6691357E-2,-1.178348E-2,-2.2175657E-2,-1.739954E-3,-1.5997564E-2,-2.9765332E-2,-3.7486795E-2,-1.0619351E-3,-1.0733586E-2,-7.3163807E-3,1.5249704E-2,-1.5623273E-2,-3.409506E-2,-1.5062036E-2,-2.7171327E-3,-1.6362831E-3,-3.1965263E-2,-1.3209768E-2,-2.2343751E-2,-1.0107139E-2,-2.7978946E-2,-3.8094234E-2,-1.9905845E-2,1.52673125E-2,3.9696414E-2,6.315837E-3,-2.3028223E-2,1.6637297E-2,4.4532623E-2,4.927317E-2,6.690877E-2,-4.2461555E-2,-1.1976698E-2,5.8262296E-2,-2.8223787E-2,7.825881E-2,2.7089998E-2,-5.2941283E-3,8.507585E-3,9.69871E-3,-1.7808082E-2,1.9559877E-2,-1.666423E-2,-2.6121294E-2,-1.0157766E-2,9.68844E-3,-1.633866E-2,-3.0932967E-2,-1.6830929E-2],"split_indices":[2,5,6,6,6,3,6,1,6,5,6,2,1,3,6,1,5,2,4,2,6,2,1,5,1,5,5,5,5,1,0,2,5,2,2,6,3,6,0,6,1,6,2,1,5,6,1,1,3,2,1,4,1,4,0,2,3,1,1,5,2,0,0,0,0,0,0,0,0,0,0,0,0,0,0,0,0,0,0,0,0,0,0,0,0,0,0,0,0,0,0,0,0,0,0,0,0,0,0,0,0,0,0,0,0,0,0,0,0,0,0,0,0,0,0,0,0],"split_type":[0,0,0,0,0,0,0,0,0,0,0,0,0,0,0,0,0,0,0,0,0,0,0,0,0,0,0,0,0,0,0,0,0,0,0,0,0,0,0,0,0,0,0,0,0,0,0,0,0,0,0,0,0,0,0,0,0,0,0,0,0,0,0,0,0,0,0,0,0,0,0,0,0,0,0,0,0,0,0,0,0,0,0,0,0,0,0,0,0,0,0,0,0,0,0,0,0,0,0,0,0,0,0,0,0,0,0,0,0,0,0,0,0,0,0,0,0],"sum_hessian":[1.1612E4,9.251E3,2.361E3,2.688E3,6.563E3,1.907E3,4.54E2,2.147E3,5.41E2,5.588E3,9.75E2,1.749E3,1.58E2,2.9E2,1.64E2,8.83E2,1.264E3,3.79E2,1.62E2,2.645E3,2.943E3,7.44E2,2.31E2,1.012E3,7.37E2,1.46E2,1.2E1,2.49E2,4.1E1,1.03E2,6.1E1,4.93E2,3.9E2,4.76E2,7.88E2,2.77E2,1.02E2,1.51E2,1.1E1,2.043E3,6.02E2,2.506E3,4.37E2,2.6E2,4.84E2,1.9E1,2.12E2,5.95E2,4.17E2,2.89E2,4.48E2,1.36E2,1E1,7E0,5E0,1.96E2,5.3E1,6E0,3.5E1,6.2E1,4.1E1,4.69E2,2.4E1,2E1,3.7E2,3.01E2,1.75E2,2.81E2,5.07E2,1.56E2,1.21E2,7.4E1,2.8E1,9.6E1,5.5E1,1.252E3,7.91E2,1.38E2,4.64E2,2.072E3,4.34E2,1.38E2,2.99E2,6E0,2.54E2,2.17E2,2.67E2,4E0,1.5E1,2.06E2,6E0,2.04E2,3.91E2,3.65E2,5.2E1,1.29E2,1.6E2,2.28E2,2.2E2,1.3E1,1.23E2,5E0,5E0,4E0,3E0,8.1E1,1.15E2,5E0,4.8E1,3E0,3E0,2.7E1,8E0,1.4E1,4.8E1,2.8E1,1.3E1],